/*
 * Copyright (c) 2025 EdgeImpulse Inc.
 *
 * Generated by Edge Impulse and licensed under the applicable Edge Impulse
 * Terms of Service. Community and Professional Terms of Service
 * (https://edgeimpulse.com/legal/terms-of-service) or Enterprise Terms of
 * Service (https://edgeimpulse.com/legal/enterprise-terms-of-service),
 * according to your product plan subscription (the “License”).
 *
 * This software, documentation and other associated files (collectively referred
 * to as the “Software”) is a single SDK variation generated by the Edge Impulse
 * platform and requires an active paid Edge Impulse subscription to use this
 * Software for any purpose.
 *
 * You may NOT use this Software unless you have an active Edge Impulse subscription
 * that meets the eligibility requirements for the applicable License, subject to
 * your full and continued compliance with the terms and conditions of the License,
 * including without limitation any usage restrictions under the applicable License.
 *
 * If you do not have an active Edge Impulse product plan subscription, or if use
 * of this Software exceeds the usage limitations of your Edge Impulse product plan
 * subscription, you are not permitted to use this Software and must immediately
 * delete and erase all copies of this Software within your control or possession.
 * Edge Impulse reserves all rights and remedies available to enforce its rights.
 *
 * Unless required by applicable law or agreed to in writing, the Software is
 * distributed on an "AS IS" BASIS, WITHOUT WARRANTIES OR CONDITIONS OF ANY KIND,
 * either express or implied. See the License for the specific language governing
 * permissions, disclaimers and limitations under the License.
 */
// Generated on: 08.12.2025 15:01:22

#include <stdio.h>
#include <stdlib.h>
#include "edge-impulse-sdk/tensorflow/lite/c/builtin_op_data.h"
#include "edge-impulse-sdk/tensorflow/lite/c/common.h"
#include "edge-impulse-sdk/tensorflow/lite/micro/micro_mutable_op_resolver.h"
#include "edge-impulse-sdk/porting/ei_classifier_porting.h"

#if EI_CLASSIFIER_PRINT_STATE
#if defined(__cplusplus) && EI_C_LINKAGE == 1
extern "C" {
    extern void ei_printf(const char *format, ...);
}
#else
extern void ei_printf(const char *format, ...);
#endif
#endif

#define STRINGIZE(x) #x
#define STRINGIZE_VALUE_OF(x) STRINGIZE(x)

#if defined (__GNUC__)  /* GNU compiler */
#define ALIGN(X) __attribute__((aligned(X)))
#define DEFINE_SECTION(x) __attribute__((section(x)))
#elif defined (_MSC_VER)
#define ALIGN(X) __declspec(align(X))
#elif defined (__TASKING__) /* TASKING Compiler */
#define ALIGN(X) __align(X)
#define DEFINE_SECTION(x) __attribute__((section(x)))
#elif defined (__ARMCC_VERSION) /* Arm Compiler */
#define ALIGN(X) __ALIGNED(x)
#define DEFINE_SECTION(x) __attribute__((section(x)))
#elif defined (__ICCARM__) /* IAR Compiler */
#define ALIGN(x) __attribute__((aligned(x)))
#define DEFINE_SECTION(x) __attribute__((section(x)))
#elif defined (__clang__) /* LLVM/Clang Compiler */
#define ALIGN(X) __ALIGNED(x)
#define DEFINE_SECTION(x) __attribute__((section(x)))
#endif

#if defined(EI_MODEL_SECTION) && (defined(__GNUC__) || defined(__clang__))
#define MODEL_SECTION(X) __attribute__((section(STRINGIZE_VALUE_OF(X))))
#else
#define MODEL_SECTION(X)
#endif

#ifndef EI_MAX_SCRATCH_BUFFER_COUNT
#ifndef CONFIG_IDF_TARGET_ESP32S3
#define EI_MAX_SCRATCH_BUFFER_COUNT 14
#else
#define EI_MAX_SCRATCH_BUFFER_COUNT 28
#endif // CONFIG_IDF_TARGET_ESP32S3
#endif // EI_MAX_SCRATCH_BUFFER_COUNT

#ifndef EI_MAX_OVERFLOW_BUFFER_COUNT
#define EI_MAX_OVERFLOW_BUFFER_COUNT 10
#endif // EI_MAX_OVERFLOW_BUFFER_COUNT

using namespace tflite;
using namespace tflite::ops;
using namespace tflite::ops::micro;

namespace {

#if defined(EI_CLASSIFIER_ALLOCATION_STATIC_HIMAX) || defined(EI_CLASSIFIER_ALLOCATION_STATIC_HIMAX_GNU)
constexpr int kTensorArenaSize = 74432;
#else
constexpr int kTensorArenaSize = 73408;
#endif

#if defined(EI_CLASSIFIER_ALLOCATION_STATIC)
#if defined (EI_TENSOR_ARENA_LOCATION)
uint8_t tensor_arena[kTensorArenaSize] ALIGN(16) DEFINE_SECTION(STRINGIZE_VALUE_OF(EI_TENSOR_ARENA_LOCATION));
#else
uint8_t tensor_arena[kTensorArenaSize] ALIGN(16);
#endif
#elif defined(EI_CLASSIFIER_ALLOCATION_STATIC_HIMAX)
#pragma Bss(".tensor_arena")
uint8_t tensor_arena[kTensorArenaSize] ALIGN(16);
#pragma Bss()
#elif defined(EI_CLASSIFIER_ALLOCATION_STATIC_HIMAX_GNU)
uint8_t tensor_arena[kTensorArenaSize] ALIGN(16) __attribute__((section(".tensor_arena")));
#else
#define EI_CLASSIFIER_ALLOCATION_HEAP 1
uint8_t* tensor_arena = NULL;
#endif

static uint8_t* tensor_boundary;
static uint8_t* current_location;

template <int SZ, class T> struct TfArray {
  int sz; T elem[SZ];
};

enum used_operators_e {
  OP_CONV_2D, OP_DEPTHWISE_CONV_2D, OP_PAD, OP_ADD, OP_SOFTMAX,  OP_LAST
};

struct TensorInfo_t { // subset of TfLiteTensor used for initialization from constant memory
  TfLiteAllocationType allocation_type;
  TfLiteType type;
  void* data;
  TfLiteIntArray* dims;
  size_t bytes;
  TfLiteQuantization quantization;
};

typedef struct {
  TfLiteTensor tensor;
  int16_t index;
} TfLiteTensorWithIndex;

typedef struct {
  TfLiteEvalTensor tensor;
  int16_t index;
} TfLiteEvalTensorWithIndex;

TfLiteContext ctx{};
static const int MAX_TFL_TENSOR_COUNT = 4;
static TfLiteTensorWithIndex tflTensors[MAX_TFL_TENSOR_COUNT];
static const int MAX_TFL_EVAL_COUNT = 4;
static TfLiteEvalTensorWithIndex tflEvalTensors[MAX_TFL_EVAL_COUNT];
TfLiteRegistration registrations[OP_LAST];

namespace g0 {
const TfArray<4, int> tensor_dimension0 = { 4, { 1,48,48,1 } };
const TfArray<1, float> quant0_scale = { 1, { 0.0039215688593685627, } };
const TfArray<1, int> quant0_zero = { 1, { -128 } };
const TfLiteAffineQuantization quant0 = { (TfLiteFloatArray*)&quant0_scale, (TfLiteIntArray*)&quant0_zero, 0 };
const MODEL_SECTION(EI_MODEL_SECTION) ALIGN(16) int32_t tensor_data1[4*2] = { 
  0, 0, 
  0, 1, 
  0, 1, 
  0, 0, 
};
const TfArray<2, int> tensor_dimension1 = { 2, { 4,2 } };
const MODEL_SECTION(EI_MODEL_SECTION) ALIGN(16) int32_t tensor_data2[7] = { 39668, -52700, -64747, -44302, -51267, -74289, -65633, };
const TfArray<1, int> tensor_dimension2 = { 1, { 7 } };
const TfArray<7, float> quant2_scale = { 7, { 0.0001397244050167501, 0.00012493519170675427, 0.00014784601808059961, 0.00014291786646936089, 0.00014179528807289898, 0.00012899009743705392, 0.00015829497715458274, } };
const TfArray<7, int> quant2_zero = { 7, { 0,0,0,0,0,0,0 } };
const TfLiteAffineQuantization quant2 = { (TfLiteFloatArray*)&quant2_scale, (TfLiteIntArray*)&quant2_zero, 0 };
const MODEL_SECTION(EI_MODEL_SECTION) ALIGN(16) int8_t tensor_data3[7*1*1*32] = { 
  /* [0][0][][] */ 74,-89,75,8,-72,23,67,112,-14,-34,43,-48,92,-19,20,34,110,82,33,-32,-12,-75,-34,-57,86,-4,-52,127,-82,-103,84,-7, 
  /* [1][0][][] */ 63,-74,20,1,50,-38,51,-90,127,29,-83,-65,-68,102,110,101,-38,55,77,-77,90,85,-6,24,-57,64,106,25,44,-34,-25,3, 
  /* [2][0][][] */ -23,-60,109,116,51,-58,88,70,-83,112,-88,-6,-26,1,0,-71,-13,-3,115,-97,-14,127,-87,8,20,-22,71,-17,-105,35,44,50, 
  /* [3][0][][] */ 82,32,-35,12,8,-88,45,-41,-95,61,34,-14,4,-14,-69,44,-68,84,-45,95,45,21,127,4,-17,-69,-46,-35,54,-63,60,49, 
  /* [4][0][][] */ -32,86,-26,123,125,-91,-40,-52,-8,111,97,5,-51,-11,-31,-39,-40,53,127,38,-86,67,-77,28,-20,60,-73,18,-104,112,-36,-76, 
  /* [5][0][][] */ 84,-47,-16,105,-34,111,116,87,-111,-45,127,-17,-79,26,-54,-83,-104,9,28,-31,107,110,-93,44,50,-73,122,121,58,-45,-64,14, 
  /* [6][0][][] */ 63,-33,-39,10,-85,-82,-74,-25,41,-108,-7,-101,-36,-27,-2,48,-4,-47,35,-86,-127,69,-18,39,13,-47,-104,-77,-103,-15,-10,23, 
};
const TfArray<4, int> tensor_dimension3 = { 4, { 7,1,1,32 } };
const TfArray<7, float> quant3_scale = { 7, { 0.0033221875783056021, 0.0029705488122999668, 0.0035152928903698921, 0.0033981178421527147, 0.0033714263699948788, 0.0030669611878693104, 0.0037637350615113974, } };
const TfLiteAffineQuantization quant3 = { (TfLiteFloatArray*)&quant3_scale, (TfLiteIntArray*)&g0::quant2_zero, 0 };
const MODEL_SECTION(EI_MODEL_SECTION) ALIGN(16) int32_t tensor_data4[32] = { 867, 138, -517, 998, 985, -506, 1006, -253, -720, 1064, 258, -598, -291, 491, -468, 654, -616, 956, 938, 719, 647, 986, 872, 908, -445, -399, -696, 377, 12, -529, -428, 643, };
const TfArray<1, int> tensor_dimension4 = { 1, { 32 } };
const TfArray<32, float> quant4_scale = { 32, { 4.7929337597452104e-05, 4.0839648136170581e-05, 4.4151118345325813e-05, 4.9216367187909782e-05, 4.5599870645673946e-05, 4.4388703827280551e-05, 5.0227514293510467e-05, 4.3850181100424379e-05, 4.9162252253154293e-05, 4.8843328841030598e-05, 4.4781580072594807e-05, 4.1025825339602306e-05, 4.3165720853721723e-05, 4.4330099626677111e-05, 4.4976317440159619e-05, 4.5405635319184512e-05, 4.3013100366806611e-05, 4.912420263281092e-05, 4.7037297917995602e-05, 4.436849121702835e-05, 4.4841835915576667e-05, 4.8235629947157577e-05, 4.3830586946569383e-05, 4.756748239742592e-05, 4.3098290916532278e-05, 4.2466712329769507e-05, 4.3621061195153743e-05, 4.4047974370187148e-05, 5.0049708079313859e-05, 4.262810034560971e-05, 4.2253665014868602e-05, 4.2463718273211271e-05, } };
const TfArray<32, int> quant4_zero = { 32, { 0,0,0,0,0,0,0,0,0,0,0,0,0,0,0,0,0,0,0,0,0,0,0,0,0,0,0,0,0,0,0,0 } };
const TfLiteAffineQuantization quant4 = { (TfLiteFloatArray*)&quant4_scale, (TfLiteIntArray*)&quant4_zero, 0 };
const MODEL_SECTION(EI_MODEL_SECTION) ALIGN(16) int8_t tensor_data5[32*1*1*96] = { 
  /* [0][0][][] */ -30,-23,109,21,98,-16,-70,-80,66,-107,-79,-5,66,28,-17,56,-55,-35,-66,-34,-40,-75,21,95,-80,6,73,-21,120,11,-15,-68,93,-44,-65,74,-82,-58,-75,34,52,-66,-69,101,44,-94,96,-2,-1,-47,-11,83,-53,-36,-94,106,34,74,116,-96,-52,78,-30,53,7,26,79,91,65,95,95,-90,97,-88,55,86,-76,19,-32,53,67,13,95,-2,-40,-23,-64,82,50,127,-5,-102,5,50,42,26, 
  /* [1][0][][] */ -77,47,-75,-13,-43,76,39,2,87,-113,-114,99,51,-34,1,86,99,-56,21,123,-46,-31,43,20,62,8,-61,120,3,7,107,-87,45,102,-22,11,51,54,-25,-87,-74,21,-2,-106,-44,53,-40,-63,-39,-107,110,58,23,75,-84,-74,10,89,80,77,-67,111,-66,-78,-67,39,61,37,84,43,14,6,-126,89,-52,68,89,-39,-33,86,-81,80,-43,-110,23,127,-70,-76,102,112,99,18,75,105,29,-9, 
  /* [2][0][][] */ 41,23,-69,80,-34,-62,72,85,-106,81,-47,127,80,-23,75,-121,-49,-32,28,40,-106,-13,96,15,-38,70,93,-3,-79,66,65,90,-68,-28,-100,-112,-95,82,93,-29,-117,-87,-2,-17,-91,102,-29,-85,106,27,75,-95,-59,61,9,17,-71,81,-74,-4,-29,51,-46,55,77,33,38,76,-100,53,-1,-83,25,-82,20,14,-64,-31,-9,-2,24,-98,-23,-53,-6,-105,-27,-40,74,96,-33,-1,-47,-86,-58,-76, 
  /* [3][0][][] */ 80,31,59,-9,-39,47,-82,38,68,4,83,-30,108,115,74,33,83,102,-65,37,127,-82,-27,-102,11,-106,-54,124,66,-70,100,12,-45,-3,13,-12,-55,-22,47,39,-33,-58,-64,20,63,53,-22,-47,43,-74,55,0,111,28,74,-66,-113,-87,-70,-42,-68,22,-12,88,76,-1,-48,-21,-7,-50,31,112,35,-116,73,-26,58,73,114,-25,-52,-113,53,95,50,69,-8,-102,-44,70,10,-94,83,-90,-56,19, 
  /* [4][0][][] */ 49,124,21,66,-4,-35,47,16,80,48,17,48,46,-8,-10,-41,-27,6,-94,37,127,-82,109,25,11,-28,67,-27,-21,44,-39,-41,76,126,38,-102,-20,-2,-95,55,-80,-38,-47,-68,24,123,44,74,16,-48,5,-75,-56,44,-112,34,6,-73,55,23,26,-72,-22,-38,-20,75,3,-39,42,-90,-64,-53,-45,4,114,66,85,-37,23,-26,32,-53,-84,-11,17,91,114,4,-82,-40,33,40,-3,51,-65,-25, 
  /* [5][0][][] */ 96,-100,68,68,25,-110,14,43,92,-107,-15,-66,8,83,26,27,62,48,-70,78,18,45,2,-33,-114,-65,-28,-102,36,21,8,-102,-49,-6,-81,7,-127,-46,36,6,-85,-60,25,82,-38,19,31,-63,-111,97,12,26,26,8,30,-31,102,31,-66,-48,17,-72,26,-82,-45,90,-36,21,63,-10,83,-81,-54,66,-40,-76,-7,-58,-4,64,90,44,18,104,-86,70,-18,32,54,-108,110,82,-6,32,58,-90, 
  /* [6][0][][] */ 34,-10,122,82,-55,-57,5,72,16,-87,29,-76,103,79,127,-86,37,7,5,110,-32,-75,119,48,-23,-67,13,-18,9,-76,53,-54,-53,-77,-9,-66,15,54,-79,82,66,57,40,-1,-102,110,-58,-12,-77,28,7,-50,69,-39,73,0,21,13,-40,105,-64,-2,81,-51,-16,81,109,-32,99,7,-60,20,60,-49,-52,-24,-40,-75,-17,8,55,-27,62,-13,-40,-53,-13,-79,102,110,94,10,-43,-63,90,-9, 
  /* [7][0][][] */ 123,60,-38,-43,-76,117,-25,-9,122,25,-105,14,49,-89,41,70,54,13,15,105,53,26,-14,83,-69,108,36,48,-80,100,-14,32,16,25,58,95,-114,82,-13,-40,112,-78,80,59,51,7,110,-109,49,-58,-111,-58,-31,80,26,25,127,-99,0,-63,-3,-9,84,-117,-73,-53,60,22,-110,23,62,78,82,30,49,61,-72,59,-106,35,83,-27,-7,-66,79,33,-108,89,72,1,94,64,-39,-17,-2,-65, 
  /* [8][0][][] */ 8,13,-52,-92,41,21,-70,-25,-12,23,31,94,-2,-52,-72,-80,-53,88,-69,1,7,-17,60,94,-127,69,41,51,-70,9,-84,109,76,-38,36,-15,92,-14,-23,73,65,77,-118,-109,-14,-43,-28,81,24,-91,-71,-7,-72,-7,-38,-88,29,101,-98,88,95,38,19,87,-39,-53,-28,75,-73,28,11,-11,55,48,-2,-1,-54,82,55,44,13,67,-117,-88,17,25,60,-40,10,-54,-90,86,-78,-101,-50,40, 
  /* [9][0][][] */ 3,34,126,56,92,-121,-29,-100,62,16,16,17,-1,-41,-87,0,-25,0,-108,-38,32,90,-68,-97,127,-21,-4,51,16,-39,-58,77,68,22,49,-9,-45,24,-25,-50,8,-39,70,-68,60,44,-77,70,2,-21,-52,-57,91,-69,-89,106,71,-43,15,1,-63,79,92,-46,-52,28,97,32,-17,102,124,-55,14,69,-70,-67,-42,-100,-6,122,56,5,110,32,-22,-57,59,-19,118,60,-24,84,76,-16,76,-27, 
  /* [10][0][][] */ -66,94,90,-75,-11,97,107,19,34,34,23,-80,84,74,-48,35,-44,71,-104,-61,-17,10,61,-72,51,51,-124,-98,-48,88,-85,-91,65,97,105,60,-39,-10,-40,17,-37,127,-90,-31,-98,-41,-12,-58,-13,-6,27,9,71,13,-58,-49,-111,-26,42,-48,-5,69,115,49,111,-65,-106,-15,2,-10,-97,-68,84,50,-73,122,-7,70,73,31,78,-2,62,110,-94,74,99,-24,48,28,2,-71,-49,-33,-46,-71, 
  /* [11][0][][] */ 103,4,-31,90,113,39,46,26,114,88,-91,113,-20,-102,14,-77,-72,-110,54,31,20,63,18,-117,-119,-113,-27,64,65,-19,19,-34,-106,-87,41,32,-74,64,-42,-68,-34,98,-92,-2,-49,-66,-107,-105,84,95,105,49,-108,-102,12,13,-80,-70,-36,-102,-95,81,78,-2,20,82,-75,16,77,46,-100,-86,32,100,-116,40,-77,33,-55,79,-127,-42,-86,-53,35,-91,8,-26,-114,-17,-4,-116,-106,-47,-83,-57, 
  /* [12][0][][] */ 15,57,-57,-1,79,8,-43,31,-60,74,-24,13,-53,10,42,-86,-107,-43,-35,-91,25,-17,4,89,-70,-44,91,-110,83,9,-41,107,-88,-73,-56,16,-16,-71,-22,29,118,32,-111,-49,-21,-72,-32,108,-55,-117,-84,106,27,-4,-76,75,-12,-70,41,59,46,108,-4,45,102,30,-51,115,49,105,37,63,80,122,-25,-6,-47,31,-127,-103,-65,105,46,17,-44,28,43,111,-97,-109,100,39,107,24,18,83, 
  /* [13][0][][] */ 107,-49,108,107,98,111,83,68,72,-120,25,-20,101,82,77,-54,-107,-61,-76,38,76,-11,127,-44,-68,31,13,30,-68,-85,85,48,54,105,-5,47,-66,-17,39,82,-65,75,-61,21,-44,8,-6,-16,39,101,-15,-100,-88,34,84,-65,-40,42,-13,-69,-13,117,-72,22,-38,-59,-74,80,-17,-22,106,13,-87,37,-64,-49,-91,54,92,-48,65,-95,73,15,-71,-97,102,112,-4,-55,-86,53,101,-84,84,-7, 
  /* [14][0][][] */ -57,-102,72,59,65,-28,-19,-115,-78,-40,61,83,-35,-82,-91,-96,-41,-47,8,15,-51,33,-10,50,-127,-74,-36,20,-121,-123,-79,43,97,-28,-38,0,85,108,27,-102,-1,-114,18,77,63,-117,52,-87,117,32,65,50,80,-13,-26,13,-49,6,37,86,-22,-83,-31,59,-97,-18,66,-115,-89,-100,-91,84,-9,78,38,-84,44,-112,43,22,32,-25,-126,-47,-119,-89,-109,99,92,-2,76,-59,75,94,-14,55, 
  /* [15][0][][] */ 13,-11,-11,87,100,-82,68,-77,65,-21,-50,18,114,18,-72,-101,91,15,-92,39,63,37,84,109,94,63,45,104,38,64,70,-83,26,12,-42,13,-45,127,119,-48,13,116,-31,-9,25,-79,-45,-62,-2,-68,19,33,-79,-86,-55,5,76,65,-37,115,-25,-53,9,110,-18,98,-51,7,-40,14,75,-53,22,-2,71,-93,13,60,117,95,-58,56,-97,-51,-103,-26,-76,44,101,86,-107,-33,43,87,-81,119, 
  /* [16][0][][] */ -69,-16,95,-70,31,113,-66,34,41,64,-121,75,-26,-60,-59,-71,104,67,80,49,99,69,-56,46,-52,56,-76,46,-116,5,35,4,-116,68,41,55,-53,45,-56,-87,32,-59,57,77,61,99,103,-27,-70,-111,-2,110,-54,106,70,34,35,72,53,3,98,103,23,49,43,4,-44,87,35,87,-46,-22,22,87,49,77,-29,83,-127,-32,1,-68,48,7,-1,88,85,7,63,-1,-16,110,81,-14,-97,18, 
  /* [17][0][][] */ 34,-70,49,88,-18,-101,-41,-73,57,-97,98,43,107,79,-87,63,29,54,84,121,-56,3,37,-41,51,60,-58,50,117,-29,-9,77,-9,-1,51,22,-20,103,-64,-15,-94,-14,7,9,9,33,83,-76,70,99,10,30,7,79,87,-51,-97,93,-51,-86,47,-76,83,107,-53,-43,53,-82,-77,11,120,48,26,-96,-36,76,127,-30,63,-26,33,-18,-52,-65,-80,88,94,-23,45,96,-78,-100,-25,72,35,23, 
  /* [18][0][][] */ -78,117,116,-44,10,-102,-78,13,13,47,-74,-36,-12,56,64,-34,26,-8,49,-2,109,-33,45,-70,43,-96,-4,127,49,38,23,52,48,-4,-74,-88,-8,39,-9,68,-47,18,-41,6,-107,27,36,19,16,-18,82,32,-75,-6,-5,98,-33,47,11,-97,90,101,23,55,-38,-86,-16,81,87,-67,-40,123,-79,-31,-63,-86,74,35,25,-47,-26,-8,-22,-59,110,-10,93,66,-77,-53,-60,97,80,-74,67,-21, 
  /* [19][0][][] */ 9,49,84,49,73,-89,106,94,100,-60,41,-21,-90,42,-56,83,58,-107,103,75,-2,69,-35,19,102,-68,28,-44,-76,-98,-50,30,82,-73,39,9,26,-55,-50,-108,39,-87,-54,22,-82,49,70,-74,-34,36,-26,45,-11,13,15,-22,23,94,20,-18,67,-55,116,76,-53,12,-19,10,-19,73,88,-36,-51,-106,-35,-54,-4,-89,35,127,76,-117,-8,93,-79,13,15,3,113,59,8,61,-33,120,80,-34, 
  /* [20][0][][] */ 0,81,83,108,-70,92,27,71,30,0,-65,12,15,104,63,-67,-36,-24,-57,-12,46,-16,-58,-59,86,-65,-83,63,46,26,-37,124,121,55,9,74,59,-9,-3,-82,-81,-31,-73,-83,-22,-64,-63,117,71,-100,-76,40,54,120,43,18,102,90,94,97,125,-42,-51,-24,-10,-51,-26,24,-56,-64,-44,91,-50,-68,46,22,123,86,122,127,101,5,91,-20,72,121,-5,78,36,105,31,68,23,14,13,19, 
  /* [21][0][][] */ 96,96,88,-75,103,-67,77,23,29,-82,-43,40,27,64,-30,-63,-88,-17,16,8,127,-28,89,-72,84,-84,-16,94,39,17,10,-8,21,39,-58,-88,122,99,-90,-17,-14,24,45,2,-90,-46,-55,106,-20,-56,17,80,54,67,-97,42,-44,62,-18,115,64,-65,32,5,94,52,-19,-58,-70,3,82,90,39,-17,82,72,-73,-29,85,123,36,83,49,-55,40,-60,84,-73,-66,102,100,-100,-45,-81,86,-23, 
  /* [22][0][][] */ 28,-40,-55,-78,102,-55,115,73,-85,73,-62,-127,124,-93,-100,-75,28,68,-120,-40,107,-61,44,39,113,2,-107,115,-41,-62,-65,-113,67,66,35,33,19,4,-50,-112,-7,-5,24,103,61,-105,89,-9,-83,-78,22,-15,-49,-82,-53,36,-1,-22,-18,-25,124,-66,-61,-105,-53,27,-97,-35,115,121,-5,9,-58,18,82,-72,59,-32,81,117,124,-103,-56,-102,84,96,98,-25,-31,58,-53,64,-1,19,-21,112, 
  /* [23][0][][] */ 54,-53,18,59,102,-113,14,-87,61,-105,98,68,33,-76,24,-21,82,-22,-109,106,103,-65,118,-36,8,-32,81,46,86,52,80,-26,-27,52,38,32,110,-6,-88,17,-114,16,13,-85,-80,-69,98,40,69,-102,-61,-48,94,-54,-71,93,-86,-3,114,43,-87,-91,-36,8,50,52,-97,-110,75,-26,121,-45,-3,-49,-18,-81,64,-42,112,127,-28,-58,18,-92,98,27,127,-27,-59,57,78,-17,82,-80,-8,60, 
  /* [24][0][][] */ -82,-59,-113,-79,-97,-119,-82,-102,66,111,72,39,106,56,-47,-127,-89,34,25,-62,90,-87,-65,-46,48,-36,66,48,97,44,-4,-75,-13,1,40,22,-65,-93,52,-33,-80,-108,95,-6,13,-42,42,64,-94,-54,-30,10,60,49,60,-83,-9,66,17,-9,79,-16,27,84,-107,88,-56,-100,-111,45,-64,-37,-48,34,84,90,53,-83,-113,-91,-89,-102,-70,-123,-8,56,-23,-108,17,-117,-1,-89,-22,26,-103,24, 
  /* [25][0][][] */ -89,-65,-93,-22,86,-81,-103,45,34,-116,-41,33,67,-6,-114,-28,-69,66,27,-115,51,86,-10,-65,4,-61,-107,30,75,-100,39,120,81,-119,46,57,96,-72,-21,-11,-89,94,-124,-4,92,29,65,33,-102,90,-86,-3,40,-22,-68,13,-41,59,-106,73,120,37,43,49,-4,65,-26,-20,-93,-20,-35,-114,23,-124,67,8,64,66,11,7,38,44,-64,73,-79,-51,-97,-85,-37,-53,91,13,-127,-30,-23,-101, 
  /* [26][0][][] */ 50,-127,-33,-27,-94,4,-11,-13,-122,-123,103,96,-67,-56,20,-29,126,44,-82,-71,-4,77,90,27,29,61,26,34,7,-5,-94,13,-16,-60,-95,-100,-64,78,-51,125,-96,90,33,33,-68,51,-40,101,-6,19,-6,96,-2,-30,-13,-89,100,75,43,26,1,-82,55,-27,114,-30,-53,52,-79,53,77,92,81,-97,-89,-13,40,-113,-111,-8,-44,68,67,-87,81,-4,-47,11,-98,95,-6,24,-64,100,43,73, 
  /* [27][0][][] */ 21,7,-45,-76,-112,-64,-60,-5,32,105,39,-76,-20,62,96,-26,78,-15,73,-75,-87,30,-27,-16,-104,54,-106,1,79,42,-28,8,73,71,-74,-72,-80,-42,-91,105,-88,18,41,23,103,20,59,96,91,82,64,-43,-86,-84,9,-15,108,-3,-127,-71,-40,-50,-28,68,36,-40,-93,112,66,32,-116,15,69,-36,-1,-66,47,-59,87,103,97,-10,118,-40,-63,-86,-29,30,-47,-17,-25,-35,69,22,98,74, 
  /* [28][0][][] */ 76,0,73,35,-100,-60,-83,-66,-60,-92,51,27,-70,-73,4,84,62,89,-71,34,-34,21,-93,-96,-121,71,-112,-49,-62,-63,-3,-20,-88,14,70,63,-5,-127,-38,-2,90,33,-89,45,-92,-50,9,27,-2,-55,-95,-53,-75,21,9,32,51,-13,67,42,-26,-38,-81,0,43,65,-29,70,-67,-3,-93,-35,60,7,-6,-86,-103,-68,-73,38,-64,-84,86,-36,51,-124,56,-82,-85,-80,-32,-59,-33,28,-91,-94, 
  /* [29][0][][] */ 45,46,44,-59,-96,7,-125,1,96,-13,-96,-100,96,-113,-57,-51,-108,98,27,-73,-84,-49,50,-1,-39,2,-51,-36,-117,-18,103,-10,33,-7,-91,-65,-19,94,-13,83,45,106,-43,74,-8,100,-54,-28,7,-16,54,-90,68,-111,109,35,-101,48,-44,100,-127,86,-96,-55,-64,-74,45,80,88,-87,26,-76,103,68,51,18,105,-70,-35,20,-13,-88,-9,-86,56,107,45,70,-46,90,63,76,-101,18,-1,50, 
  /* [30][0][][] */ 22,-65,-76,22,-101,18,-65,-15,111,-19,1,-47,-109,11,49,5,-16,40,90,-114,32,-106,-113,1,-113,20,-79,117,-19,-111,-95,2,-91,-75,-127,-65,13,-26,-10,26,92,-81,-24,95,94,-53,98,55,-71,67,15,-106,91,-50,-20,95,-82,-58,-82,-56,-113,-15,-75,-30,-115,-92,-106,82,-72,97,41,-38,-99,102,39,-98,-63,-77,-76,-70,16,13,-111,-25,-110,28,-110,100,-38,-122,67,43,-47,-13,7,-83, 
  /* [31][0][][] */ 97,-84,57,120,63,68,-57,-82,-10,-30,-72,-100,123,-102,-23,117,-63,-92,40,70,89,57,-22,122,66,-103,56,57,-51,-63,48,113,49,36,-73,16,115,-5,-66,-103,63,-69,-13,39,14,-40,-29,43,74,32,115,-21,-109,-45,-98,39,-95,79,3,124,-26,7,104,-78,85,127,-24,-66,92,-106,-95,20,-85,-27,19,19,-43,-25,65,121,-57,-47,82,85,66,112,-96,26,39,-32,-72,-49,4,109,5,-6, 
};
const TfArray<4, int> tensor_dimension5 = { 4, { 32,1,1,96 } };
const TfArray<32, float> quant5_scale = { 32, { 0.0020369968842715025, 0.0017356850439682603, 0.0018764225533232093, 0.0020916955545544624, 0.0019379945006221533, 0.0018865199526771903, 0.0021346693392843008, 0.0018636325839906931, 0.0020893956534564495, 0.0020758414175361395, 0.0019032170530408621, 0.0017435975605621934, 0.0018345430726185441, 0.001884029246866703, 0.0019114934839308262, 0.0019297394901514053, 0.0018280567601323128, 0.0020877786446362734, 0.0019990850705653429, 0.0018856608076021075, 0.001905777957290411, 0.0020500142127275467, 0.0018627999816089869, 0.0020216179545968771, 0.0018316773930564523, 0.0018048352794721723, 0.001853895140811801, 0.0018720388179644942, 0.0021271125879138708, 0.0018116942374035716, 0.0017957807285711169, 0.0018047080375254154, } };
const TfLiteAffineQuantization quant5 = { (TfLiteFloatArray*)&quant5_scale, (TfLiteIntArray*)&g0::quant4_zero, 0 };
const MODEL_SECTION(EI_MODEL_SECTION) ALIGN(16) int32_t tensor_data6[96] = { 1756, 98, 4810, 6878, 3862, -2689, 4333, -1399, -2079, -528, 5571, -2272, 4561, 6919, 1416, 1888, -773, -602, -1729, 7011, 2728, -961, 4146, -611, -788, 3112, 1237, 2685, 4870, 2137, 4769, 1301, 1715, 6301, 7563, 3608, -420, 4295, 2307, -3202, -319, 1237, -194, 1654, -1730, 515, -1734, 721, -8924, 1578, 1273, -3501, 6020, -1243, 3401, 1818, 1100, 1942, -827, -1966, 199, 1951, 347, 3760, 5248, 4364, 3641, 7240, 4053, -1131, 4008, 4918, 4306, -2245, 4991, 8270, 1260, -4418, 1177, 1586, 9978, 2250, -347, -2897, 1093, 665, 2504, -2757, 4206, -138, 3502, 968, 117, -3668, 34, 2182, };
const TfArray<1, int> tensor_dimension6 = { 1, { 96 } };
const TfArray<96, float> quant6_scale = { 96, { 0.00012211684952490032, 0.00018550673848949373, 0.00013135798508301377, 0.00011476645158836618, 0.00017285291687585413, 0.00014800592907704413, 0.00014272856060415506, 0.00019255725783295929, 0.00018417341925669461, 0.00023786170640960336, 0.00011590449139475822, 0.00018419460684526712, 0.00013131603191141039, 9.3093134637456387e-05, 0.00019937369506806135, 0.00022322352742776275, 0.00021200423361733556, 0.00016024382784962654, 0.00015423673903569579, 8.9945628133136779e-05, 0.00016758186393417418, 0.00014756539894733578, 9.2031965323258191e-05, 0.00021545375057030469, 0.00022548870765604079, 0.00019379144941922277, 0.0001986141869565472, 0.00014618749264627695, 0.00015490614168811589, 0.00017866829875856638, 0.00010958809434669092, 0.00020343468349892646, 0.00019297678954899311, 0.00010391638352302834, 8.2505117461550981e-05, 0.00013243961439002305, 0.00017891658353619277, 0.00011184360482729971, 0.00015428611368406564, 0.00015506695490330458, 0.00017624982865527272, 0.00015718030044808984, 0.00017538458632770926, 0.0001465845707571134, 0.00013848488742951304, 0.00014063657727092505, 0.00015406394959427416, 0.00019131629960611463, 7.7099110058043152e-05, 0.00015946745406836271, 0.00019214261556044221, 0.00014110674965195358, 0.00012170370609965175, 0.00014876366185490042, 0.00010947534610750154, 0.00014417312922887504, 0.00018844618170987815, 0.00020546613086480647, 0.00021276995539665222, 0.00015900615835562348, 0.00018557843577582389, 0.00012073799734935164, 0.00024507424677722156, 0.00018191109120380133, 0.00012145849905209616, 0.00010348514479119331, 0.00010759137512650341, 9.5455536211375147e-05, 0.00015914069081190974, 0.00013774604303762317, 0.00012730262824334204, 0.000148169812746346, 0.00010677360114641488, 0.00012049162614857778, 0.00014299084432423115, 9.5063332992140204e-05, 0.00012326972500886768, 0.00014289531100075692, 0.00012739721569232643, 0.00014918803935870528, 8.6890766397118568e-05, 0.00012721691746264696, 0.00017809876590035856, 0.00014320196351036429, 0.00016063128714449704, 0.00016771459195297211, 0.00012837350368499756, 0.0001499480422353372, 0.00014795997412875295, 0.00022499417536891997, 0.00016580260125920177, 0.00020857813069596887, 0.00011159823043271899, 0.00011251829710090533, 0.00018170138355344534, 0.0001283469027839601, } };
const TfArray<96, int> quant6_zero = { 96, { 0,0,0,0,0,0,0,0,0,0,0,0,0,0,0,0,0,0,0,0,0,0,0,0,0,0,0,0,0,0,0,0,0,0,0,0,0,0,0,0,0,0,0,0,0,0,0,0,0,0,0,0,0,0,0,0,0,0,0,0,0,0,0,0,0,0,0,0,0,0,0,0,0,0,0,0,0,0,0,0,0,0,0,0,0,0,0,0,0,0,0,0,0,0,0,0 } };
const TfLiteAffineQuantization quant6 = { (TfLiteFloatArray*)&quant6_scale, (TfLiteIntArray*)&quant6_zero, 0 };
const MODEL_SECTION(EI_MODEL_SECTION) ALIGN(16) int8_t tensor_data7[96*1*1*16] = { 
  /* [0][0][][] */ -24,95,-86,53,43,-44,124,63,-62,9,31,-109,88,127,-88,11, 
  /* [1][0][][] */ -25,-8,-60,-16,-11,38,22,-127,42,-51,-33,-62,-8,-48,-68,-1, 
  /* [2][0][][] */ -41,-42,35,97,11,43,-102,127,-16,-1,70,-70,-26,-86,-66,64, 
  /* [3][0][][] */ 79,-104,84,4,-13,-37,-24,127,-34,70,63,65,-23,48,7,-2, 
  /* [4][0][][] */ -53,-31,-8,58,-98,13,-17,-127,5,-13,16,-14,25,32,94,94, 
  /* [5][0][][] */ 127,27,-20,-24,-78,25,25,73,16,-10,68,89,123,31,-85,10, 
  /* [6][0][][] */ 4,-46,-64,-47,-82,10,0,-56,-46,-64,-40,31,84,46,127,-21, 
  /* [7][0][][] */ -48,38,-31,-81,10,-57,-83,17,-92,55,-67,-73,-127,-29,18,92, 
  /* [8][0][][] */ 49,37,71,15,48,20,70,3,76,-29,31,-4,-127,-29,-84,3, 
  /* [9][0][][] */ -32,61,33,-41,-27,-14,25,-14,-24,46,-46,8,43,127,25,26, 
  /* [10][0][][] */ 81,54,-60,56,-41,-30,69,-63,-88,-49,-69,-110,-127,-100,7,120, 
  /* [11][0][][] */ 42,1,64,13,-17,-34,17,110,-101,28,-35,8,-10,-10,63,127, 
  /* [12][0][][] */ -63,-33,2,17,8,-3,127,31,-45,23,-12,-17,-16,65,-58,82, 
  /* [13][0][][] */ -5,7,13,67,68,17,111,71,-21,69,-92,-64,22,52,-127,-47, 
  /* [14][0][][] */ -100,119,15,-14,-1,8,54,3,-37,30,127,-23,-80,32,-46,37, 
  /* [15][0][][] */ -17,-22,-127,-42,82,-44,-90,-36,-18,-25,-20,-70,-8,-79,-62,43, 
  /* [16][0][][] */ 112,-10,9,-12,34,-24,34,-15,-29,13,127,50,38,9,-35,11, 
  /* [17][0][][] */ 15,16,-24,-94,-14,-62,115,-127,8,-24,-51,24,49,68,6,49, 
  /* [18][0][][] */ 28,125,-9,-62,68,-86,-19,-63,-44,127,-32,5,-33,62,-10,-24, 
  /* [19][0][][] */ -72,-124,127,-79,40,-116,29,-53,70,38,66,84,13,-17,62,-54, 
  /* [20][0][][] */ -25,88,64,16,2,0,33,-34,72,-5,92,-37,-127,-36,-91,-14, 
  /* [21][0][][] */ -55,51,27,13,78,44,57,53,-127,63,-39,6,-19,31,-53,-22, 
  /* [22][0][][] */ 9,-96,42,24,8,-124,127,5,12,-50,-44,-74,43,-98,-63,-55, 
  /* [23][0][][] */ -49,-88,48,58,30,-14,21,-36,12,-29,83,13,6,73,79,127, 
  /* [24][0][][] */ -12,-11,25,88,39,15,-47,-127,72,10,-50,17,2,-6,-31,-30, 
  /* [25][0][][] */ -7,37,25,-45,-28,-5,12,-27,-22,56,-40,-13,44,127,23,14, 
  /* [26][0][][] */ -59,81,6,14,32,-80,1,-28,10,25,15,73,14,3,-75,127, 
  /* [27][0][][] */ -25,-127,-41,13,-66,83,8,-66,16,-28,49,-26,25,-55,-100,-22, 
  /* [28][0][][] */ -41,-7,33,86,14,6,-28,-127,-104,41,87,-12,65,1,-51,-36, 
  /* [29][0][][] */ -106,112,-21,-43,-17,27,-127,-62,-52,-30,9,-1,13,-46,-94,66, 
  /* [30][0][][] */ 62,73,-44,89,-116,-101,-75,-22,-32,-3,-5,-127,119,31,-12,84, 
  /* [31][0][][] */ 127,26,-61,-31,-81,18,121,37,-73,-9,72,62,43,14,-32,6, 
  /* [32][0][][] */ -49,-34,127,8,-34,73,89,11,-24,-16,-18,38,-2,60,56,38, 
  /* [33][0][][] */ -12,10,-72,-32,-33,35,127,22,17,-27,6,-82,94,113,-70,38, 
  /* [34][0][][] */ -109,-25,110,26,39,-56,104,-8,-127,37,29,-58,50,72,-57,-45, 
  /* [35][0][][] */ -1,20,-47,7,-66,127,-40,-31,-7,111,0,92,-69,82,22,43, 
  /* [36][0][][] */ -17,-79,127,-52,-60,13,-37,-8,6,22,-48,93,1,-90,-41,53, 
  /* [37][0][][] */ 73,-15,70,-18,95,-72,-39,27,-60,127,-73,-3,-93,-52,100,-23, 
  /* [38][0][][] */ 70,67,20,-126,10,-40,-127,79,-92,67,-90,-62,-63,-106,-89,80, 
  /* [39][0][][] */ -81,16,-55,-34,-78,-80,79,9,-127,-31,18,81,41,-8,-10,50, 
  /* [40][0][][] */ 127,43,13,-97,-64,28,16,-34,-36,-22,-44,-86,19,62,38,39, 
  /* [41][0][][] */ 94,-74,-62,-57,-10,-9,-54,-19,47,-20,7,-46,127,-70,63,-19, 
  /* [42][0][][] */ -5,-79,-41,127,17,-91,-124,25,-1,19,18,55,-85,88,-52,7, 
  /* [43][0][][] */ -82,-36,-43,-127,-46,11,-10,82,38,-120,-24,38,-20,-39,-22,103, 
  /* [44][0][][] */ -39,48,42,-40,-20,-15,27,127,118,-76,84,102,117,57,-22,-1, 
  /* [45][0][][] */ 32,72,-70,99,127,-99,-34,-73,112,-69,66,-77,-26,7,-83,66, 
  /* [46][0][][] */ -19,-33,4,-14,108,-10,23,27,-10,127,-31,-115,26,75,-39,75, 
  /* [47][0][][] */ 69,-38,-30,-9,67,-13,-31,-51,-8,127,-23,33,-3,-100,-79,18, 
  /* [48][0][][] */ 5,22,-22,-127,-9,-55,125,-123,4,-2,-32,60,56,59,1,45, 
  /* [49][0][][] */ -21,127,-51,44,45,-60,69,52,-33,18,40,-94,-37,80,117,-106, 
  /* [50][0][][] */ 11,40,-22,7,-127,-3,-68,-60,60,63,26,25,-36,-40,-1,31, 
  /* [51][0][][] */ 127,-37,-47,-12,-44,87,-91,-43,51,-14,-40,60,-29,-65,1,37, 
  /* [52][0][][] */ -17,-52,41,76,-36,-104,-127,-21,-26,-61,-48,-84,21,-60,-3,70, 
  /* [53][0][][] */ 33,101,54,-127,10,109,89,-23,-6,-25,-9,-43,89,-113,4,54, 
  /* [54][0][][] */ 36,124,13,-19,-2,-93,-103,55,7,-20,-39,127,81,93,19,65, 
  /* [55][0][][] */ -59,-23,64,51,54,-31,123,102,-72,-4,3,-1,127,56,-23,-21, 
  /* [56][0][][] */ 127,24,26,34,-55,109,-56,-77,-16,51,-82,-5,-61,95,-18,28, 
  /* [57][0][][] */ -46,-33,-39,-29,-60,-82,64,-16,-127,-13,52,65,10,31,0,38, 
  /* [58][0][][] */ 43,-50,60,17,12,-52,-20,12,29,-11,-127,-26,19,-29,-31,43, 
  /* [59][0][][] */ 80,16,-127,86,7,36,92,-32,-89,-44,41,-95,-119,-65,40,122, 
  /* [60][0][][] */ -2,34,-9,17,-16,-21,-19,9,-41,-67,64,127,-46,-123,-28,-2, 
  /* [61][0][][] */ -20,24,82,-95,-65,58,-7,127,-11,-88,64,57,87,7,21,113, 
  /* [62][0][][] */ 79,42,-6,-127,-15,-1,4,-49,0,31,-44,43,28,-23,-94,-86, 
  /* [63][0][][] */ -6,-33,-2,4,-74,-73,-50,6,-77,-14,-42,-21,127,-7,46,-17, 
  /* [64][0][][] */ 39,14,-18,40,-95,-32,-30,-78,48,127,48,-3,52,-40,-32,124, 
  /* [65][0][][] */ -34,14,-17,-8,-78,96,23,-26,62,-113,101,-80,71,73,-127,58, 
  /* [66][0][][] */ -116,96,-87,-84,44,-31,-117,-69,-93,111,80,3,-127,-49,44,47, 
  /* [67][0][][] */ 9,-27,-127,-118,72,77,3,-22,-35,0,59,-17,30,45,25,53, 
  /* [68][0][][] */ 57,26,-17,-45,-56,43,7,39,-51,64,127,-18,-14,-33,-113,-5, 
  /* [69][0][][] */ 82,-115,64,-44,20,-126,-36,127,4,66,90,98,-34,75,-21,-8, 
  /* [70][0][][] */ 29,-5,112,56,75,-22,127,-1,37,16,-82,31,-75,45,-84,16, 
  /* [71][0][][] */ 1,23,87,-61,-127,-75,23,5,-23,-5,18,-95,-69,-5,0,31, 
  /* [72][0][][] */ -62,-99,25,-127,78,-15,12,44,-75,18,-119,-20,69,125,-64,127, 
  /* [73][0][][] */ 30,25,48,-11,127,-80,-53,10,-29,91,-81,26,-73,-43,122,-11, 
  /* [74][0][][] */ -113,4,-127,-63,65,-39,-32,32,-95,23,-126,-33,-45,-62,-45,78, 
  /* [75][0][][] */ 97,-27,46,-42,25,4,-127,-28,-3,-101,65,-2,13,-12,-9,-9, 
  /* [76][0][][] */ -10,-72,-30,127,21,74,107,-79,97,-123,46,102,27,-107,-69,23, 
  /* [77][0][][] */ -37,-28,127,-35,39,-33,-22,-119,12,20,44,88,57,56,27,16, 
  /* [78][0][][] */ -64,-8,6,-23,-14,-61,44,-16,20,-18,11,-83,-99,-84,-127,-54, 
  /* [79][0][][] */ -127,-85,-20,42,119,31,-12,7,33,21,-32,52,-60,-90,-59,-32, 
  /* [80][0][][] */ -9,-113,51,127,-37,-17,-96,70,-9,29,66,8,-88,-12,-24,55, 
  /* [81][0][][] */ 107,67,-15,83,-6,35,28,127,13,20,107,53,109,26,58,-22, 
  /* [82][0][][] */ -63,-4,13,-26,29,-127,-113,-95,8,86,-47,-36,-37,99,-84,-30, 
  /* [83][0][][] */ 99,-25,86,-35,-34,-17,-127,-6,21,-125,11,-47,-17,-13,10,-24, 
  /* [84][0][][] */ 23,-63,-85,26,127,35,40,30,-110,26,-91,-23,55,-29,-69,27, 
  /* [85][0][][] */ 11,82,40,-36,92,14,31,-101,127,-37,25,-27,81,-69,9,-13, 
  /* [86][0][][] */ 118,-53,127,68,-11,-69,91,36,-57,-63,-116,-55,36,8,-87,3, 
  /* [87][0][][] */ -1,13,19,-87,78,-23,-45,16,33,-35,81,-27,-84,-127,3,29, 
  /* [88][0][][] */ -61,-28,44,-8,32,36,-75,-50,-2,13,-71,-127,-57,-37,-10,-23, 
  /* [89][0][][] */ -100,0,18,-59,14,4,-127,13,101,24,-93,-15,-25,-106,-62,-35, 
  /* [90][0][][] */ -6,-15,-28,-81,127,19,-60,33,43,54,31,-20,36,22,-68,-15, 
  /* [91][0][][] */ -28,-49,28,41,-33,-7,-20,77,-46,-41,42,-48,2,68,28,127, 
  /* [92][0][][] */ -29,81,-1,-13,-19,67,-99,53,-50,-11,67,11,-42,127,58,18, 
  /* [93][0][][] */ -15,67,-49,-59,58,88,-65,-3,62,63,59,56,-127,21,-39,74, 
  /* [94][0][][] */ 12,52,98,25,-127,-38,20,-19,28,-15,15,-19,-63,-35,0,-36, 
  /* [95][0][][] */ -28,15,54,15,120,-18,-81,84,8,24,-109,127,-37,-14,114,-53, 
};
const TfArray<4, int> tensor_dimension7 = { 4, { 96,1,1,16 } };
const TfArray<96, float> quant7_scale = { 96, { 0.0015231997240334749, 0.0023138807155191898, 0.0016384671907871962, 0.0014315160224214196, 0.0021560457535088062, 0.0018461218569427729, 0.0017802957445383072, 0.0024018238764256239, 0.0022972498554736376, 0.0029669196810573339, 0.0014457111246883869, 0.0022975141182541847, 0.0016379437875002623, 0.0011611783411353827, 0.0024868473410606384, 0.0027843334246426821, 0.002644391730427742, 0.0019987688865512609, 0.0019238406093791127, 0.001121918554417789, 0.0020902983378618956, 0.0018406270537525415, 0.001147942035458982, 0.0026874186005443335, 0.0028125876560807228, 0.0024172184057533741, 0.0024773736950010061, 0.001823440077714622, 0.001932190265506506, 0.0022285827435553074, 0.0013669248437508941, 0.0025375012774020433, 0.0024070567451417446, 0.0012961799511685967, 0.0010291108628734946, 0.0016519586788490415, 0.0022316796239465475, 0.0013950584689155221, 0.001924456562846899, 0.0019341962179169059, 0.0021984165068715811, 0.0019605564884841442, 0.0021876241080462933, 0.001828392967581749, 0.0017273630946874619, 0.0017542017158120871, 0.0019216854125261307, 0.002386345062404871, 0.00096168013988062739, 0.0019890849944204092, 0.0023966520093381405, 0.0017600664868950844, 0.0015180464833974838, 0.001855573384091258, 0.0013655185466632247, 0.0017983142752200365, 0.0023505452554672956, 0.0025628400035202503, 0.002653942909091711, 0.0019833310507237911, 0.0023147750180214643, 0.0015060008736327291, 0.0030568840447813272, 0.0022690310142934322, 0.0015149879036471248, 0.0012908009812235832, 0.0013420191826298833, 0.0011906452709808946, 0.0019850090611726046, 0.0017181473085656762, 0.0015878835693001747, 0.0018481661099940538, 0.0013318188721314073, 0.0015029278583824635, 0.0017835673643276095, 0.0011857531499117613, 0.0015375798102468252, 0.001782375737093389, 0.0015890633221715689, 0.0018608667887747288, 0.0010838143061846495, 0.0015868144109845161, 0.0022214788477867842, 0.001786200562492013, 0.0020036017522215843, 0.0020919539965689182, 0.0016012408304959536, 0.0018703464884310961, 0.0018455487443134189, 0.0028064192738384008, 0.0020681051537394524, 0.0026016570627689362, 0.001391997910104692, 0.0014034741325303912, 0.0022664153948426247, 0.0016009090468287468, } };
const TfLiteAffineQuantization quant7 = { (TfLiteFloatArray*)&quant7_scale, (TfLiteIntArray*)&g0::quant6_zero, 0 };
const MODEL_SECTION(EI_MODEL_SECTION) ALIGN(16) int32_t tensor_data8[16] = { 10002, 10983, 1747, 5989, -1112, 6802, 3619, 964, 17123, -5698, -11105, 7898, -16084, 9893, 2729, 6450, };
const TfArray<1, int> tensor_dimension8 = { 1, { 16 } };
const TfArray<16, float> quant8_scale = { 16, { 4.7574369091307744e-05, 6.785865843994543e-05, 4.6728167944820598e-05, 6.3310777477454394e-05, 7.2052091127261519e-05, 7.470077252946794e-05, 5.0198494136566296e-05, 5.5155367590487003e-05, 0.00011234944395255297, 7.5613876106217504e-05, 5.4979358537821099e-05, 5.5953598348423839e-05, 7.272834045579657e-05, 5.5455489928135648e-05, 8.0991740105673671e-05, 5.2786246669711545e-05, } };
const TfArray<16, int> quant8_zero = { 16, { 0,0,0,0,0,0,0,0,0,0,0,0,0,0,0,0 } };
const TfLiteAffineQuantization quant8 = { (TfLiteFloatArray*)&quant8_scale, (TfLiteIntArray*)&quant8_zero, 0 };
const MODEL_SECTION(EI_MODEL_SECTION) ALIGN(16) int8_t tensor_data9[16*1*1*96] = { 
  /* [0][0][][] */ -112,37,76,-30,-67,-13,-70,-13,-48,24,-15,-23,41,42,49,-40,20,-2,100,20,11,-46,127,73,41,37,7,30,-72,-121,-86,14,-42,-53,34,10,13,21,6,30,-8,4,-85,2,-69,-37,-4,97,-24,1,-56,-29,-14,2,38,-53,-100,4,1,90,55,15,-5,-2,-33,-67,-35,34,-56,-65,9,-16,1,3,-72,-49,-37,9,-39,-1,-55,72,79,-81,4,53,9,58,45,-12,-10,-27,-22,-44,-68,19, 
  /* [1][0][][] */ 38,19,40,-50,-56,-16,-13,-3,-7,35,55,-63,14,-8,-55,-33,-9,-3,-55,40,-11,-89,18,48,-15,-52,-3,-42,65,-108,119,-65,52,28,-13,59,48,80,-10,-46,37,30,-1,-25,-4,51,-127,-38,-54,-59,-7,-19,28,-48,-29,58,24,12,-19,34,38,48,-1,-101,-9,-28,-65,8,3,-16,-92,2,-55,-10,20,-80,2,18,25,-73,-18,-23,-99,-35,43,-30,-22,27,-58,2,-61,29,30,63,-56,73, 
  /* [2][0][][] */ 82,-37,9,36,17,-100,73,20,-26,-30,-28,-4,-99,-25,9,-46,-90,-44,-56,27,23,-41,-62,32,2,-95,-2,-28,-22,57,-61,115,-71,127,-45,11,-25,-36,-26,-21,-105,69,70,32,-74,11,-18,-32,35,2,-44,-45,71,-26,-28,53,25,-17,33,-22,-5,63,-29,14,69,26,-2,-28,42,46,-34,-16,51,35,59,54,39,-86,76,55,87,-23,-42,43,-70,26,31,58,-5,-8,-13,46,-59,45,-10,21, 
  /* [3][0][][] */ -6,-5,-23,16,13,-19,7,-45,-34,44,27,61,14,-5,-43,34,16,-24,15,-4,21,127,26,-46,9,10,-27,0,64,-30,57,-28,-26,30,-34,-33,10,34,31,2,-65,-40,-44,28,-29,30,26,-10,-17,-47,-12,-20,55,-74,-31,-55,1,66,-31,-9,-19,-7,-39,4,20,44,-36,-12,-15,-5,20,-74,-23,-54,25,-4,15,-6,-33,-29,-27,-7,-47,19,-21,-40,34,-25,-16,10,34,-8,46,20,-35,41, 
  /* [4][0][][] */ 30,17,-45,21,25,28,-44,8,-33,77,89,-18,-7,3,5,-55,13,-12,-36,45,23,-49,58,78,-71,-2,-127,13,-36,-69,15,15,-68,-38,6,64,5,42,22,27,-36,-40,46,-27,-10,11,-29,50,-39,57,19,25,46,-16,-82,21,54,-20,6,-2,44,2,32,21,-48,17,-43,7,-50,35,-42,56,35,-65,-42,-41,22,-49,-16,12,-44,93,-71,3,-25,27,35,-52,60,7,33,0,-59,-28,33,23, 
  /* [5][0][][] */ -77,34,35,-4,47,-15,60,-38,-11,36,0,-46,40,-17,-17,-51,-12,-34,44,30,-123,-34,-77,38,-50,-6,48,19,46,-83,-7,52,56,126,-8,48,-13,31,41,-21,-23,104,76,-33,3,68,42,-1,-7,24,-17,31,11,-40,25,-81,46,-54,-67,-51,76,95,-42,-25,72,-52,-84,-62,-52,-17,-57,5,-30,22,-32,-47,14,-39,-49,-16,127,-15,20,-90,-72,34,25,-5,-43,50,23,-20,-19,30,1,85, 
  /* [6][0][][] */ 34,-9,-88,34,-29,-123,101,99,-67,63,-18,87,-127,-66,67,52,10,-49,-19,-14,-4,-6,-58,-62,-52,38,71,26,36,38,84,-69,20,3,7,-80,9,-10,26,65,3,3,-64,-20,-1,-62,-75,16,36,-112,-40,72,48,10,-21,-76,59,32,5,-13,-124,44,-87,-11,28,9,6,40,46,14,0,-68,-30,6,98,42,68,-30,47,-79,-12,-52,-70,64,-9,-57,51,10,-62,59,43,61,-29,10,-41,104, 
  /* [7][0][][] */ 42,79,-40,-70,-36,-15,30,2,-48,44,-37,-59,-29,16,0,-2,-46,-51,-23,70,-26,119,17,40,-6,11,33,23,44,47,79,-21,85,24,-20,16,10,0,2,47,-73,4,22,-46,30,-48,59,-17,41,-66,-89,-42,-60,6,6,-5,41,28,-100,2,10,111,24,-25,-20,9,-42,34,-51,-9,-127,41,15,79,-25,40,-50,51,21,-72,-19,-66,69,-84,40,-25,-12,5,1,79,-79,53,48,-22,-42,28, 
  /* [8][0][][] */ -8,77,-46,46,-30,-20,-80,31,-100,-36,-3,-4,-36,35,31,73,1,-44,-3,6,39,-5,1,-16,-34,61,-4,25,-7,-20,-36,-33,-28,-39,-27,-63,-45,29,44,-1,2,-37,26,10,-39,-33,15,-20,-26,-20,54,74,5,-15,-69,87,-35,27,-6,-33,-39,16,10,60,-40,-60,-42,-13,-38,11,13,7,-23,-50,-121,-12,-49,30,-68,-36,-32,6,-40,-26,4,-1,14,24,18,48,-57,-19,-83,-127,23,-57, 
  /* [9][0][][] */ -9,21,-68,48,-39,-36,67,53,-8,46,-23,89,-26,-18,21,127,9,12,73,17,15,14,30,-93,-37,-7,19,-5,10,-19,40,50,-38,1,1,-111,23,-14,-18,-20,-15,23,51,-25,-10,11,10,14,36,84,29,-3,-53,-78,1,-3,2,-8,71,-25,-55,58,-57,-17,82,-6,-25,15,-68,35,34,45,-11,83,-28,-24,-27,21,-43,-8,49,-35,67,5,37,-22,-14,-32,-52,19,0,-9,63,35,-39,-6, 
  /* [10][0][][] */ 77,1,-37,0,-38,-30,82,-2,22,-20,-20,-1,-93,-19,3,-4,-65,-31,26,30,33,34,29,6,-46,91,43,-12,-60,-73,-28,-9,83,-48,37,11,77,-87,85,127,18,-55,3,4,-27,-98,-18,64,33,89,-78,-51,-28,23,21,56,22,-60,82,54,-11,47,-60,-30,-2,-58,24,59,21,-20,-23,42,122,42,34,-87,28,-58,62,-9,-37,24,38,23,-48,-9,19,54,-42,-2,34,57,51,73,-40,18, 
  /* [11][0][][] */ -38,-50,36,-84,4,-15,-28,-53,65,-39,17,-9,-3,-7,-4,11,-81,-8,49,11,-73,10,-74,-80,26,26,-43,42,28,-69,31,-29,34,-2,25,-21,-75,21,-125,29,-77,70,-44,65,36,26,-19,-36,17,-35,-60,-77,14,36,87,-58,-24,-57,11,-60,-12,-64,-29,-127,2,-68,74,89,113,26,61,-21,-27,-8,81,-43,117,42,33,49,30,-16,-15,81,91,-3,-20,-13,-78,-59,-14,36,59,52,51,68, 
  /* [12][0][][] */ 39,-23,-6,-42,41,108,-12,31,57,71,0,58,17,51,25,4,-65,50,13,47,127,-8,74,-66,34,31,-70,-69,-24,81,7,13,37,-9,16,-37,49,-9,-33,-34,23,-17,36,52,-21,33,6,-6,-64,20,-1,16,-30,-26,12,21,-34,67,12,62,30,-99,17,-111,-6,90,-17,-30,-5,-53,61,12,-7,23,1,46,-11,50,-79,-18,-13,36,115,6,-5,75,-33,-69,82,20,-85,56,81,12,-28,-93, 
  /* [13][0][][] */ -12,33,-14,-45,-34,-20,5,-48,33,-27,-29,-83,65,-110,-53,-84,-14,-29,-77,-11,-120,-49,22,115,-45,20,121,3,13,-44,71,66,26,1,-126,127,-28,-56,38,-54,126,27,-8,25,-3,-98,55,-30,77,-10,-49,15,19,-6,6,90,83,-43,-37,1,70,42,11,-108,1,26,-41,53,-67,-36,-103,15,-81,39,-46,-89,-113,15,40,87,-12,60,35,-99,59,38,44,4,-2,2,-2,8,-56,17,-26,13, 
  /* [14][0][][] */ -2,14,-69,-32,78,85,-85,-15,47,-34,80,-16,25,-24,-36,-65,-70,12,32,127,-4,-30,-1,18,4,44,-22,65,3,-13,-22,16,68,-3,-36,4,-11,63,71,14,52,8,31,5,-2,-39,44,-34,14,-11,-11,-36,34,20,-28,32,22,66,-85,-6,-6,-72,-33,-100,3,-41,-39,7,-76,48,-28,37,-2,-18,-16,-35,44,-14,-44,-29,28,0,-4,-23,-6,38,-19,-10,-22,74,59,14,-4,-37,-41,-54, 
  /* [15][0][][] */ -77,-49,49,-80,15,-30,-38,-101,7,31,0,86,0,-30,24,110,-127,-25,31,-70,19,-36,-3,-86,63,-4,66,-69,-77,-113,-82,46,-27,64,100,-106,0,-38,29,-18,-29,-2,39,-18,4,3,73,124,-44,-11,29,-59,-57,65,21,-56,-102,-6,127,17,-29,18,-109,27,-63,-6,11,35,49,-83,86,-33,79,-37,-22,-54,16,29,69,6,-14,79,64,31,-4,-10,-126,16,-3,-55,-96,40,47,-27,-22,85, 
};
const TfArray<4, int> tensor_dimension9 = { 4, { 16,1,1,96 } };
const TfArray<16, float> quant9_scale = { 16, { 0.00202191062271595, 0.0028839928563684225, 0.001985947135835886, 0.0026907080318778753, 0.003062213771045208, 0.0031747827306389809, 0.0021334360353648663, 0.0023441030643880367, 0.0047748512588441372, 0.0032135897781699896, 0.0023366226814687252, 0.0023780278861522675, 0.0030909543856978416, 0.0023568582255393267, 0.0034421489108353853, 0.0022434154525399208, } };
const TfLiteAffineQuantization quant9 = { (TfLiteFloatArray*)&quant9_scale, (TfLiteIntArray*)&g0::quant8_zero, 0 };
const MODEL_SECTION(EI_MODEL_SECTION) ALIGN(16) int32_t tensor_data10[96] = { -723, -1461, -2754, -7157, 695, 4487, -1532, 464, -2048, -4850, 11112, -1956, -1236, 11182, 8420, -4501, 14977, 3269, -5727, -1479, -2950, -2806, 748, -1712, 344, -3724, -1770, -3592, 1298, -7215, 1575, 434, 11144, -31, -744, -118, -298, -1756, -779, 7849, 675, -335, 744, -7516, 14304, 14321, 2064, 16016, -999, 12972, 15503, -5180, -1067, 777, 613, 11273, -316, 87, 13985, 8337, 8665, 12108, 8619, -11257, -1361, -482, -2446, 5582, -4123, -2344, 1645, 2147, 12657, -701, -1077, 10630, -1767, -61, 7906, -2861, -923, 14526, -2167, 1007, 18722, 4220, -5898, -3518, -5035, -6615, 10932, 277, 2605, 421, -5604, -3480, };
const TfArray<96, float> quant10_scale = { 96, { 0.00021264670067466795, 0.00017333815048914403, 0.00012777969823218882, 0.00010926649702014402, 0.00019246032752562314, 0.00024380795366596431, 0.00026357793831266463, 0.00022129206627141684, 0.00019200061797164381, 0.00013971143926028162, 9.8721829999703914e-05, 0.00030450444319285452, 0.00021698663476854563, 0.00012107658403692767, 0.00013957783812656999, 0.00015891986549831927, 0.00011888917651958764, 0.00018584360077511519, 0.00016172426694538444, 0.00012110434181522578, 0.00018756570352707058, 0.00025179795920848846, 0.00017643197497818619, 0.00020511783077381551, 0.00055043981410562992, 0.0001985400595003739, 0.00020177687110845, 0.00016683127614669502, 0.00016316083201672882, 0.00011509608884807676, 0.00025498730246908963, 0.00021517921413760632, 0.00017615382967051119, 0.00017219218716491014, 0.00020393449813127518, 0.00032830671989358962, 0.00017308267706539482, 0.00034102483186870813, 0.00028694092179648578, 0.00010305939940735698, 0.00017654958355706185, 0.00020040842355228961, 0.00021753289911430329, 9.5770075859036297e-05, 9.033660899149254e-05, 0.00010070132702821866, 0.00018457316036801785, 9.2551352281589061e-05, 0.00016295077512040734, 8.4139741375111043e-05, 0.00010410439426777884, 0.00011947907478315756, 0.00014545388694386929, 0.00015077566786203533, 0.00019281015556771308, 0.00014053704217076302, 0.00020494716591201723, 0.00018317894136998802, 0.00015014661767054349, 0.00011492688645375893, 0.00015065654588397592, 0.00019445482757873833, 0.00015118818555492908, 0.000106022234831471, 0.00016868991951923817, 0.00024502503219991922, 0.00026668183272704482, 0.00017546153685543686, 0.00020866312843281776, 0.00017877985374070704, 0.00024258263874799013, 0.00012211878492962569, 0.00012008017074549571, 0.00021294585894793272, 0.00024369666061829776, 0.00014316948363557458, 0.00013380828022491187, 0.0001958389620995149, 0.0001478573540225625, 0.00020715466234833002, 0.00021680655481759459, 9.1678819444496185e-05, 0.00023482913093175739, 0.00017088056483771652, 7.7769174822606146e-05, 0.0001279923744732514, 0.00012160580808995292, 0.00018295424524694681, 0.00026241387240588665, 0.0001671055651968345, 0.00011324737715767696, 0.00033870237530209124, 0.0001968508877325803, 0.00021614728029817343, 0.00011397418711567298, 0.00026513409102335572, } };
const TfLiteAffineQuantization quant10 = { (TfLiteFloatArray*)&quant10_scale, (TfLiteIntArray*)&g0::quant6_zero, 0 };
const MODEL_SECTION(EI_MODEL_SECTION) ALIGN(16) int8_t tensor_data11[1*3*3*96] = { 
  /* [0][0][][] */ 33,117,-3,25,-43,-5,45,34,71,-70,-88,39,-10,-6,34,-49,-85,11,19,31,40,83,75,83,24,-4,-53,-9,-10,8,18,-30,-41,6,-44,123,-4,45,3,-18,31,-36,6,36,-118,-52,-3,-30,-15,-101,-48,18,19,60,-26,-7,-75,-63,-63,-127,-127,7,-101,9,-24,54,46,-31,-21,54,44,-13,-18,13,40,-6,21,-44,-82,30,9,-106,51,-18,-90,-69,-1,18,-80,23,-76,36,52,-10,76,5, -31,-24,5,119,-27,86,-21,-12,110,45,-127,92,-28,-61,-76,127,-127,70,48,92,127,11,114,127,38,15,24,45,6,127,-12,-127,61,73,1,68,73,103,-27,-127,127,-15,87,122,-70,-85,127,-81,-3,-127,-109,-9,21,127,-27,-127,-5,33,-102,-80,-78,-127,-56,111,-26,82,127,-46,2,127,127,-15,-66,29,-34,-108,46,-61,-11,127,-1,-64,127,-62,-84,-73,106,67,107,110,-92,6,127,-33,127,44, 24,-92,3,15,-26,-19,-14,51,36,76,-63,3,-4,49,4,-89,-20,2,8,35,40,64,49,91,25,-31,32,32,-5,16,-6,-50,-50,-82,-42,70,3,3,9,9,-12,23,-9,79,-44,-30,-10,3,22,-68,17,25,7,-25,1,-4,44,-80,-19,-86,-63,28,-69,9,41,24,-38,-26,-19,2,12,3,-10,-37,-11,0,18,-19,-78,8,13,-127,31,-1,-20,-48,11,-25,-62,5,-27,36,9,37,32,-11, 
  /* [0][1][][] */ 99,0,69,124,2,-63,127,26,-33,-127,-124,127,-3,-127,-54,28,-97,-49,89,42,-81,13,-127,-83,-8,54,-127,127,-103,71,123,53,25,60,7,127,-127,78,-15,-72,59,-127,24,88,-127,-63,-5,-126,-122,-99,-111,23,127,-63,83,-22,-127,-5,-62,-4,-64,-70,-39,46,-88,-19,105,-103,-36,30,-38,-127,-112,64,127,-89,127,65,-88,-34,127,-81,-15,97,-45,-25,17,88,16,24,-68,26,-15,-87,81,-21, -127,17,-55,127,-87,-127,-105,-127,101,17,-27,36,-80,-122,-56,123,-123,-127,127,127,45,-127,-107,100,-127,127,23,75,-104,-31,-127,56,-127,73,127,-47,29,127,127,-108,-46,33,13,39,-41,-127,-88,-127,-5,-94,-127,127,51,65,52,-70,11,25,68,-18,-40,-41,-127,127,-8,-127,96,127,33,51,-99,-80,-43,58,-102,-127,124,127,80,-40,-85,48,-77,62,-112,-114,127,127,127,127,-127,-127,-87,-65,61,127, 59,-10,96,59,0,-32,11,22,-50,124,-64,67,9,-13,-127,71,4,-49,23,19,-88,20,-79,-80,-3,14,126,-13,127,89,17,-111,-10,-127,-23,124,-116,-8,-33,-62,-14,113,30,127,-6,-13,-10,-82,127,-96,-67,-16,42,-106,-127,21,76,-6,-127,57,-17,-63,6,65,127,-33,-21,-17,-42,6,-36,-41,-127,-127,2,-50,9,-14,-127,-31,-65,-119,-18,127,-127,10,11,-15,-20,-17,-6,39,-29,127,36,-27, 
  /* [0][2][][] */ 28,-127,39,-2,10,20,41,52,-37,-36,-15,-43,26,-18,-2,39,-4,13,6,56,2,56,13,-41,27,39,-11,-7,-36,22,-2,5,-36,-13,-34,8,37,9,4,-34,-8,15,-15,-15,-14,-41,-25,-1,-21,25,-36,46,-6,-8,-39,-14,1,-5,5,21,-39,-7,36,11,-21,50,-29,-42,32,-2,12,90,-32,15,25,10,-30,-45,-19,4,19,4,-6,-25,-38,29,-25,-19,-57,61,11,25,-27,-3,8,-22, -55,23,127,2,127,70,-24,13,-127,34,-97,-43,127,-23,-55,20,3,58,-6,-50,25,12,65,0,72,-46,5,31,-24,107,-26,15,-84,29,7,-16,68,42,19,-102,-31,-5,-127,12,-6,-29,-54,-50,-10,-59,-78,94,85,-80,-45,-76,-10,127,-46,18,80,-118,68,98,-12,26,-39,-1,127,-16,3,102,-91,18,-19,-60,-5,-83,-44,-26,-3,-55,-17,-53,-68,127,34,-13,87,58,48,31,-40,-22,-1,-18, 16,85,35,-5,-3,-9,-5,44,11,76,24,-16,17,-3,-32,41,-24,-7,-4,48,-8,48,-3,-33,14,33,20,19,4,29,-26,-76,-43,-22,-27,0,42,-18,-1,-19,-12,-12,3,16,-37,-23,-26,-5,24,29,-32,21,-8,-23,4,1,8,0,-5,50,-24,6,25,3,41,22,-65,9,17,11,5,104,-10,-14,-4,9,-12,-10,-19,16,-1,-43,-10,-3,-52,18,-18,-34,-58,63,24,22,-33,9,9,-29, 
};
const TfArray<4, int> tensor_dimension11 = { 4, { 1,3,3,96 } };
const TfArray<96, float> quant11_scale = { 96, { 0.010077197104692459, 0.0082143889740109444, 0.0060554016381502151, 0.005178072489798069, 0.0091205770149827003, 0.011553909629583359, 0.012490796856582165, 0.010486895218491554, 0.0090987915173172951, 0.0066208392381668091, 0.0046783671714365482, 0.014430278912186623, 0.010282863862812519, 0.0057377452030777931, 0.0066145081073045731, 0.0075311148539185524, 0.0056340852752327919, 0.008807014673948288, 0.0076640136539936066, 0.0057390606962144375, 0.0088886236771941185, 0.011932550929486752, 0.0083610033616423607, 0.0097204083576798439, 0.026085006073117256, 0.0094086918979883194, 0.0095620825886726379, 0.0079060317948460579, 0.0077320919372141361, 0.0054543330334126949, 0.012083691544830799, 0.010197211056947708, 0.0083478223532438278, 0.0081600826233625412, 0.0096643306314945221, 0.015558253973722458, 0.0082022817805409431, 0.016160957515239716, 0.01359795406460762, 0.004883921705186367, 0.0083665763959288597, 0.0094972327351570129, 0.010308750905096531, 0.0045384853146970272, 0.0042809965088963509, 0.004772174172103405, 0.0087468093261122704, 0.0043859519064426422, 0.0077221374958753586, 0.0039873309433460236, 0.0049334433861076832, 0.0056620403192937374, 0.00689297029748559, 0.0071451663970947266, 0.0091371554881334305, 0.0066599645651876926, 0.0097123207524418831, 0.0086807375773787498, 0.007115356158465147, 0.005446314811706543, 0.0071395216509699821, 0.009215095080435276, 0.0071647153235971928, 0.0050243288278579712, 0.0079941116273403168, 0.011611586436629295, 0.012637888081371784, 0.0083150146529078484, 0.0098884180188179016, 0.0084722675383090973, 0.011495842598378658, 0.0057871341705322266, 0.0056905257515609264, 0.010091373696923256, 0.011548635549843311, 0.0067847138270735741, 0.0063410922884941101, 0.0092806881293654442, 0.0070068691857159138, 0.0098169324919581413, 0.010274330154061317, 0.0043446030467748642, 0.011128408834338188, 0.0080979252234101295, 0.0036854336503893137, 0.0060654799453914165, 0.0057628247886896133, 0.0086700897663831711, 0.012435632757842541, 0.0079190302640199661, 0.0053667239844799042, 0.016050897538661957, 0.0093286428600549698, 0.010243087075650692, 0.0054011670872569084, 0.012564542703330517, } };
const TfLiteAffineQuantization quant11 = { (TfLiteFloatArray*)&quant11_scale, (TfLiteIntArray*)&g0::quant6_zero, 3 };
const MODEL_SECTION(EI_MODEL_SECTION) ALIGN(16) int32_t tensor_data12[96] = { 7895, 3403, 1159, -1294, 6500, 8700, 9283, 2423, -746, 11856, 1205, -4781, 4179, 3417, 472, -742, 4786, 12077, -389, -13, 3955, 21968, 12973, -2831, -4049, -990, 14800, 57, 2114, 1227, 11762, -1742, 11554, 2814, 6216, -4289, 1264, -6518, 109, 1718, 2781, 1430, 1810, -176, 1464, 2433, 4707, 5959, 4093, 2751, 5731, 3862, -2568, 2090, 1244, 2290, 2050, 3004, 7826, 1496, -972, 9309, 4353, 3875, 4416, 9547, -5823, 3739, 6907, -823, 6704, 1617, 3769, 3839, 3894, 3479, -472, 3367, 2776, 3195, 3477, 3936, 9523, 835, 3675, 5748, 1341, -836, 16148, -275, 876, -1603, 14772, 3640, 180, -843, };
const TfArray<96, float> quant12_scale = { 96, { 9.795579535420984e-05, 0.00010693863441701978, 0.00015261273074429482, 0.00013562494132202119, 0.00011427356366766617, 9.473109821556136e-05, 8.847741992212832e-05, 0.00013494782615453005, 0.00010876722080865875, 6.3785177189856768e-05, 0.00015595837612636387, 0.00010082827066071332, 0.00012477743439376354, 0.00013655338261742145, 0.00014641453162766993, 0.00012810342013835907, 0.00012987272930331528, 6.0432674217736349e-05, 0.00010339485015720129, 0.00016984378453344107, 0.00014010904124006629, 4.3670304876286536e-05, 6.7568769736681134e-05, 0.00011213299876544625, 0.00013424934877548367, 0.00013207065057940781, 6.2297054682858288e-05, 0.00012111663090763614, 0.0001270637585548684, 0.00014808631385676563, 7.2163522418122739e-05, 0.00015388944302685559, 7.066978287184611e-05, 0.00016995597979985178, 0.0001153758930740878, 0.00013431314437184483, 0.0001260700955754146, 9.1511552454903722e-05, 0.00013660250988323241, 0.00015979434829205275, 0.00015205079398583621, 0.00015277702186722308, 0.00019080174388363957, 0.00023226696066558361, 0.00019175719353370368, 0.00016583275282755494, 0.00012099862215109169, 0.00010389857197878882, 0.00014154969539958984, 0.00017146389291156083, 0.00012538034934550524, 0.00011192393867531791, 0.00013137316273059696, 0.00017394998576492071, 0.00017685674538370222, 0.00016874430002644658, 0.00016395254351664335, 0.00012428958143573254, 0.00010362490866100416, 0.00017436030611861497, 0.00018609753169585019, 7.8544158895965666e-05, 0.00012924645852763206, 0.0001590028841746971, 0.00011997133697150275, 8.236171561293304e-05, 0.00010290879436070099, 0.00011104914301540703, 9.0115543571300805e-05, 0.00016301515279337764, 0.00010224081052001566, 0.00012639747001230717, 0.00011058084783144295, 0.00011148265184601769, 0.00013263059372548014, 8.2790909800678492e-05, 0.00019786854682024568, 0.00011973072832915932, 0.00012904622417408973, 0.00015425260062329471, 0.00012798690295312554, 0.00010997898789355531, 8.1895334005821496e-05, 0.00012200597848277539, 0.00010789745283545926, 0.00012531683023553342, 0.00011989524500677362, 0.00021647060930263251, 5.5258889915421605e-05, 0.00016240777040366083, 0.00017582428699824959, 0.00015121394244488329, 6.1415696109179407e-05, 0.00011896430805791169, 0.00017182462033815682, 0.00011242796608712524, } };
const TfLiteAffineQuantization quant12 = { (TfLiteFloatArray*)&quant12_scale, (TfLiteIntArray*)&g0::quant6_zero, 0 };
const MODEL_SECTION(EI_MODEL_SECTION) ALIGN(16) int8_t tensor_data13[96*1*1*16] = { 
  /* [0][0][][] */ -70,36,2,-34,-33,-68,-48,-39,66,-32,23,-71,92,-118,7,-127, 
  /* [1][0][][] */ -83,71,-111,-103,-65,32,-14,53,-42,4,79,-55,41,127,21,43, 
  /* [2][0][][] */ -47,-8,-75,13,-11,-49,22,-38,-85,127,72,7,43,67,-41,106, 
  /* [3][0][][] */ -57,-79,5,-30,-90,6,-49,-127,-1,14,30,-80,-69,-51,-127,-53, 
  /* [4][0][][] */ 65,-6,-17,36,-52,-6,-127,40,11,58,15,56,7,8,-46,-89, 
  /* [5][0][][] */ -84,58,-70,-21,54,-45,-39,-72,76,-13,19,-32,16,-127,-110,-111, 
  /* [6][0][][] */ -12,-37,-40,11,-74,76,44,-39,-25,-39,127,-27,6,-2,-122,18, 
  /* [7][0][][] */ -46,108,127,-67,39,103,-3,-42,34,80,-102,-42,48,4,25,58, 
  /* [8][0][][] */ -58,9,62,-7,54,9,95,127,-52,-5,-72,-97,14,77,-102,-81, 
  /* [9][0][][] */ 31,50,86,36,-120,-41,-96,-127,69,-1,127,22,-40,-105,60,-16, 
  /* [10][0][][] */ -9,-123,7,-76,-127,65,42,18,-30,-46,-13,47,-28,43,-127,17, 
  /* [11][0][][] */ 99,-75,-22,82,-101,-29,75,-1,127,112,-57,48,34,-88,-34,112, 
  /* [12][0][][] */ -50,-53,127,3,60,-19,17,65,76,-36,113,76,-31,17,-78,26, 
  /* [13][0][][] */ -7,-37,27,38,9,11,127,22,-93,16,6,8,-26,114,95,-90, 
  /* [14][0][][] */ 116,-82,127,10,82,60,86,65,84,53,67,37,69,-29,18,-55, 
  /* [15][0][][] */ 8,127,15,-43,24,110,-61,48,-62,-12,-49,10,-55,108,-4,-51, 
  /* [16][0][][] */ -46,56,126,-54,33,83,2,-7,3,16,-23,48,90,-4,84,127, 
  /* [17][0][][] */ 14,109,95,-127,40,-39,-5,-80,-65,83,-31,73,-78,-39,108,-72, 
  /* [18][0][][] */ -89,7,-76,-100,127,89,-46,-69,48,91,127,80,-11,113,-48,-3, 
  /* [19][0][][] */ 43,127,106,72,73,-53,0,-3,-16,122,39,107,80,70,-78,54, 
  /* [20][0][][] */ 102,-15,-5,87,-68,6,-31,63,-11,-63,-127,-57,105,-48,17,-16, 
  /* [21][0][][] */ -115,-103,-15,125,-22,14,-127,50,-13,12,0,27,-49,47,-86,-14, 
  /* [22][0][][] */ -4,3,-70,-36,127,3,-35,58,45,65,50,58,-13,30,-9,33, 
  /* [23][0][][] */ -66,22,-17,13,29,64,92,91,-20,127,-21,-34,8,35,-65,-31, 
  /* [24][0][][] */ 36,-72,38,5,127,40,63,-49,44,34,42,42,-82,37,-1,-22, 
  /* [25][0][][] */ 127,-63,88,33,0,-18,-37,103,121,-29,-57,1,127,-60,98,47, 
  /* [26][0][][] */ 43,35,104,98,75,-9,-71,-14,4,72,11,127,29,-68,21,-57, 
  /* [27][0][][] */ -71,27,-78,16,-28,118,23,-87,22,-91,127,19,44,-45,115,118, 
  /* [28][0][][] */ -50,30,-90,-127,37,-74,2,-44,-101,98,-58,23,-16,30,-35,81, 
  /* [29][0][][] */ 73,91,-67,42,25,86,-25,-29,39,45,-14,51,-127,-2,-28,63, 
  /* [30][0][][] */ -43,82,-118,-62,85,-36,12,22,-68,54,-61,-9,4,78,-4,127, 
  /* [31][0][][] */ 20,-127,91,47,69,-71,-82,40,-21,-4,15,-37,-84,50,31,126, 
  /* [32][0][][] */ -63,63,2,31,-122,54,29,47,-2,-127,5,-76,17,56,58,38, 
  /* [33][0][][] */ -77,-9,58,90,-6,13,-52,8,-36,-54,18,-19,-14,-10,6,127, 
  /* [34][0][][] */ -6,18,-86,-98,66,-7,-8,68,16,-1,6,-8,-45,-14,-27,127, 
  /* [35][0][][] */ 69,-8,20,-8,-3,11,-73,-19,-14,-127,-49,9,-3,-32,46,-18, 
  /* [36][0][][] */ -5,15,-115,-11,47,127,-14,36,-25,19,56,31,8,34,-84,42, 
  /* [37][0][][] */ 43,37,72,-41,56,-127,43,-17,-119,66,-99,-30,4,27,85,27, 
  /* [38][0][][] */ -38,127,48,-44,33,13,69,-93,11,-7,-116,47,-60,-101,-88,9, 
  /* [39][0][][] */ 91,46,-127,-119,-11,-31,2,-46,12,-10,13,-56,74,11,-125,-69, 
  /* [40][0][][] */ -35,33,-73,-91,-43,-8,8,-127,-22,-16,14,-32,41,91,52,61, 
  /* [41][0][][] */ -40,-100,-9,127,-10,-21,-65,-13,-8,-61,64,-68,-71,-13,-1,28, 
  /* [42][0][][] */ -15,70,-15,-127,28,25,-5,-25,43,4,-36,12,67,-12,-12,10, 
  /* [43][0][][] */ 0,37,8,18,118,31,29,18,4,45,-12,-77,-127,-55,-7,-28, 
  /* [44][0][][] */ 72,-25,25,55,-35,3,6,49,39,-30,25,2,127,-2,-67,-36, 
  /* [45][0][][] */ 13,-105,-57,39,-30,-110,11,40,33,-10,5,50,-96,127,31,-49, 
  /* [46][0][][] */ -10,-64,54,61,8,-3,-108,47,21,-48,47,-9,24,80,84,127, 
  /* [47][0][][] */ -45,-56,12,81,1,-6,60,20,-2,-77,-127,-38,46,-32,-70,17, 
  /* [48][0][][] */ -86,82,-10,-29,7,57,6,-118,29,-21,41,-53,56,-127,-54,9, 
  /* [49][0][][] */ -55,0,30,-39,7,15,110,127,-20,-34,-5,18,-35,33,-43,30, 
  /* [50][0][][] */ 52,12,-59,34,35,-127,-52,-9,-77,35,-25,10,12,-65,-109,-59, 
  /* [51][0][][] */ -60,67,-31,122,-54,54,-46,-87,-45,-92,-20,-67,-4,26,-11,127, 
  /* [52][0][][] */ -127,14,16,0,10,45,58,8,12,-85,-50,-51,-112,-68,-107,-15, 
  /* [53][0][][] */ -44,-63,-48,-127,-32,-5,19,80,45,-57,-50,29,-19,29,53,91, 
  /* [54][0][][] */ 18,-51,-3,-7,-70,61,63,-28,-13,-79,51,20,-16,-21,-127,47, 
  /* [55][0][][] */ -12,-26,-37,19,62,-27,67,77,-49,-50,-127,-25,55,-34,-19,34, 
  /* [56][0][][] */ 69,-46,-60,-16,-127,28,-125,3,-16,-12,-45,11,110,-35,51,18, 
  /* [57][0][][] */ -50,23,11,-33,127,49,38,52,-48,43,9,-4,-59,80,-103,-28, 
  /* [58][0][][] */ 28,11,4,-26,46,-16,-55,-50,49,-127,-51,2,-68,-43,-34,60, 
  /* [59][0][][] */ -54,-19,-4,2,7,50,-84,-53,70,127,-83,6,-22,-7,-6,-1, 
  /* [60][0][][] */ 12,-65,-4,9,-127,-46,45,3,-2,59,-34,55,8,-54,39,40, 
  /* [61][0][][] */ 23,35,-75,-27,-36,-16,-127,-75,-20,7,41,126,62,-60,105,54, 
  /* [62][0][][] */ 42,-26,56,-25,-6,33,52,125,-41,127,14,77,35,28,57,94, 
  /* [63][0][][] */ 17,-127,-20,-13,-79,15,57,-33,-7,-22,-10,-15,-39,121,101,29, 
  /* [64][0][][] */ -8,-10,-127,-46,28,56,26,-24,-5,-93,41,-4,72,-48,-80,103, 
  /* [65][0][][] */ -4,-12,67,55,53,-16,73,69,-36,6,-127,-65,24,98,-55,-15, 
  /* [66][0][][] */ -38,-124,-15,-117,-68,-127,61,-27,-2,-38,18,98,-59,-54,-66,91, 
  /* [67][0][][] */ -19,-89,-94,-16,-95,123,-11,-127,-80,-31,-32,-127,27,-19,-63,37, 
  /* [68][0][][] */ 127,55,16,-4,-65,21,-79,-58,-89,-92,-29,-1,21,-16,72,-71, 
  /* [69][0][][] */ 38,-4,52,-18,-7,-58,-46,16,-9,127,-34,14,-14,21,69,-37, 
  /* [70][0][][] */ 40,-21,-23,85,-126,38,-11,-101,113,127,19,75,39,-62,-22,17, 
  /* [71][0][][] */ 118,-79,81,106,-69,-36,21,-9,127,-4,-34,42,68,-87,29,7, 
  /* [72][0][][] */ 1,-30,31,90,48,-11,-127,87,85,-24,61,2,-35,-72,-60,99, 
  /* [73][0][][] */ 46,5,55,-98,65,-85,-63,41,-4,127,-41,0,9,-85,14,-50, 
  /* [74][0][][] */ 91,11,39,33,-127,-39,58,-7,-85,-41,17,-32,43,-70,13,29, 
  /* [75][0][][] */ 105,127,-106,4,91,54,-35,-20,-8,-32,68,85,-101,73,64,103, 
  /* [76][0][][] */ -63,-36,1,-49,-48,-6,91,-4,-59,30,85,52,-47,-127,-17,77, 
  /* [77][0][][] */ -70,127,-13,29,-79,-70,49,96,51,-81,-8,55,-36,64,-16,122, 
  /* [78][0][][] */ 127,41,-52,21,-64,27,-120,-21,-11,-16,-66,11,36,-98,22,59, 
  /* [79][0][][] */ -53,-33,127,53,-34,-98,-52,-55,-12,22,14,16,-70,105,-50,87, 
  /* [80][0][][] */ 67,103,17,-127,0,37,80,-39,23,19,-31,23,82,-58,-6,-9, 
  /* [81][0][][] */ 43,-85,26,-127,111,41,-19,120,116,36,-29,-54,-29,11,-116,-98, 
  /* [82][0][][] */ 70,45,76,10,127,-87,27,50,-2,93,-39,20,-20,-48,23,-104, 
  /* [83][0][][] */ -46,68,12,25,83,80,127,106,-7,39,-31,-71,-88,78,-53,-105, 
  /* [84][0][][] */ -17,-105,-24,105,-20,-77,-66,46,-89,64,-93,-37,-127,64,-10,-64, 
  /* [85][0][][] */ -105,43,-36,-6,-23,-45,-33,-47,-6,40,0,-59,-127,-98,-78,37, 
  /* [86][0][][] */ -11,48,87,127,17,-42,54,8,22,8,-55,-79,21,53,-120,-72, 
  /* [87][0][][] */ -21,45,127,-23,-110,-29,24,9,39,-24,6,45,-48,13,-11,-12, 
  /* [88][0][][] */ -35,-82,-127,26,37,31,5,14,-14,-88,-123,-100,124,-20,8,46, 
  /* [89][0][][] */ 30,18,18,-120,3,-74,-57,57,127,-22,28,-116,2,-47,60,-91, 
  /* [90][0][][] */ 5,73,20,9,-35,43,36,116,-3,-57,-7,127,54,23,-36,81, 
  /* [91][0][][] */ -69,-5,-9,60,101,55,-44,-127,-50,35,-4,34,-111,-127,-60,-15, 
  /* [92][0][][] */ -38,68,-1,-16,-127,1,-81,56,-53,49,85,84,-22,-6,50,2, 
  /* [93][0][][] */ 89,37,92,36,-127,-79,34,12,-33,-65,-27,-55,18,-47,0,16, 
  /* [94][0][][] */ -33,-127,25,-95,8,39,-16,9,74,-16,-1,52,13,56,-39,39, 
  /* [95][0][][] */ -48,-53,-21,-57,116,95,-51,44,79,58,-57,72,-51,127,-71,20, 
};
const TfArray<96, float> quant13_scale = { 96, { 0.0015680231153964996, 0.0017118154792115092, 0.0024429415352642536, 0.0021710102446377277, 0.00182922906242311, 0.0015164039796218276, 0.0014162984443828464, 0.0021601715125143528, 0.0017410865984857082, 0.0010210383916273713, 0.0024964970070868731, 0.0016140041407197714, 0.0019973693415522575, 0.0021858722902834415, 0.0023437242489308119, 0.0020506100263446569, 0.002078932011500001, 0.00096737337298691273, 0.0016550885047763586, 0.0027187669184058905, 0.0022427893709391356, 0.00069905049167573452, 0.0010816041612997651, 0.001794964075088501, 0.0021489905193448067, 0.0021141152828931808, 0.00099721737205982208, 0.0019387692445889115, 0.002033967524766922, 0.0023704851046204567, 0.0011551544303074479, 0.0024633784778416157, 0.0011312434216961265, 0.0027205629739910364, 0.0018468745984137058, 0.0021500117145478725, 0.0020180614665150642, 0.0014648671494796872, 0.0021866587921977043, 0.0025579009670764208, 0.00243394635617733, 0.0024455715902149677, 0.0030542504973709583, 0.0037180031649768353, 0.0030695449095219374, 0.0026545606087893248, 0.0019368801731616259, 0.0016631518956273794, 0.0022658505477011204, 0.0027447007596492767, 0.0020070204045623541, 0.0017916176002472639, 0.0021029501222074032, 0.0027844968717545271, 0.002831026678904891, 0.0027011670172214508, 0.00262446328997612, 0.0019895599689334631, 0.0016587711870670319, 0.0027910650242120028, 0.0029789481777697802, 0.001257292227819562, 0.0020689070224761963, 0.0025452317204326391, 0.0019204359268769622, 0.0013184015406295657, 0.0016473080031573772, 0.0017776143504306674, 0.0014425206463783979, 0.0026094580534845591, 0.0016366153722628951, 0.0020233020186424255, 0.0017701181350275874, 0.0017845536349341273, 0.0021230785641819239, 0.0013252719072625041, 0.0031673721969127655, 0.0019165844423696399, 0.0020657018758356571, 0.0024691917933523655, 0.0020487448200583458, 0.0017604838358238339, 0.0013109359424561262, 0.0019530054414644837, 0.0017271637916564941, 0.0020060036331415176, 0.001919217873364687, 0.0034651439636945724, 0.00088455429067835212, 0.0025997352786362171, 0.0028144996613264084, 0.0024205506779253483, 0.00098310911562293768, 0.0019043160136789083, 0.0027504751924425364, 0.0017996857641264796, } };
const TfLiteAffineQuantization quant13 = { (TfLiteFloatArray*)&quant13_scale, (TfLiteIntArray*)&g0::quant6_zero, 0 };
const MODEL_SECTION(EI_MODEL_SECTION) ALIGN(16) int32_t tensor_data14[16] = { -29823, -10197, 9529, -3553, 8458, -13619, 33556, -14618, 14790, -8190, 9787, 8212, -7751, -32047, -6344, 849, };
const TfArray<16, float> quant14_scale = { 16, { 7.4939052865374833e-05, 6.2010243709664792e-05, 6.2763370806351304e-05, 5.1472725317580625e-05, 8.5107472841627896e-05, 0.00014190418005455285, 4.853696736972779e-05, 5.9666777815436944e-05, 0.00010533398017287254, 9.0494489995762706e-05, 8.8827080617193133e-05, 6.985296931816265e-05, 9.2806782049592584e-05, 0.00011460248060757294, 8.6939515313133597e-05, 6.9580601120833308e-05, } };
const TfLiteAffineQuantization quant14 = { (TfLiteFloatArray*)&quant14_scale, (TfLiteIntArray*)&g0::quant8_zero, 0 };
const MODEL_SECTION(EI_MODEL_SECTION) ALIGN(16) int8_t tensor_data15[16*1*1*96] = { 
  /* [0][0][][] */ 34,37,12,36,-20,-74,-15,-19,-16,-69,6,-3,55,-65,61,36,-81,-45,33,20,79,17,-76,17,-12,68,127,73,18,78,64,-39,4,-1,5,-25,44,30,6,-2,122,25,23,-27,-9,-6,3,-37,34,-42,96,-6,-65,-5,41,38,-1,-32,-5,26,-14,34,-69,-8,24,2,60,45,12,-29,21,22,14,26,8,30,62,-23,42,19,-6,40,55,44,-58,7,-12,62,14,17,-101,-14,21,9,118,73, 
  /* [1][0][][] */ 21,44,-45,3,-5,-48,86,-71,-46,-29,-65,-39,-7,-36,-5,-44,-13,-36,-25,4,-18,-77,94,-20,-7,7,3,53,-44,13,-21,25,-35,24,23,10,-13,58,-48,81,37,17,-6,-43,45,-46,4,35,-73,-11,50,-84,-35,44,61,55,31,35,-70,24,-28,16,-16,-13,45,37,97,21,-27,-127,14,0,20,49,-13,35,-49,-8,94,-21,49,-19,58,-39,-17,-52,-18,-1,-18,-33,20,11,60,-52,-23,43, 
  /* [2][0][][] */ 2,-27,15,-21,62,50,-45,31,-62,29,19,-30,30,-18,18,32,34,-16,-127,-23,-17,-36,-13,14,3,-7,-38,16,-42,-22,-25,61,-23,-42,-13,11,-52,12,-22,-24,54,4,10,36,11,46,-6,-15,-73,10,-22,14,-20,38,9,-68,31,10,50,20,-28,-22,-12,50,24,-14,-40,-15,-17,5,-22,-31,14,43,17,58,-60,-18,-33,-40,20,21,37,-27,-15,-49,-8,-41,-10,-32,-3,57,-5,-8,83,-36, 
  /* [3][0][][] */ 39,-55,-30,-127,3,-20,111,-28,15,112,-76,-23,15,-40,-20,71,74,53,-35,5,-61,24,13,1,-48,96,57,0,-50,-23,-78,60,-12,-31,17,-39,-5,-70,-24,61,-7,1,-23,20,62,-66,-11,23,58,-25,25,-47,106,32,24,-17,5,-40,0,-53,-40,21,63,-11,-50,-44,118,-51,-53,0,-64,15,14,-77,-11,-81,9,-54,124,-14,-24,-70,-55,-66,-51,-59,89,83,-39,45,-63,-11,2,-83,-17,40, 
  /* [4][0][][] */ -28,80,27,19,-17,1,-40,-19,29,-32,0,-12,18,40,-23,28,-3,-47,-18,-62,35,-34,-72,23,-28,-40,-23,15,-40,127,-50,-6,2,-33,11,-24,67,54,-43,9,29,7,17,-35,-59,-3,65,-19,21,-30,-57,-3,-74,32,49,25,4,71,-29,31,-29,-61,-24,10,70,37,-63,-2,4,-15,19,-69,-19,64,54,73,-35,33,-64,47,23,63,38,-54,42,-66,-32,-75,-36,-55,-55,-7,5,11,39,-32, 
  /* [5][0][][] */ -9,-15,36,-15,-14,-26,-19,7,33,10,-14,-3,-19,-29,23,-23,-10,0,-46,-26,-22,9,-21,7,22,-45,62,-18,-7,36,10,79,-6,-73,22,6,-35,-23,-29,6,-45,1,-24,19,-2,18,-62,16,-18,14,49,-6,19,-65,3,15,-23,-52,8,-27,43,26,19,48,-34,12,107,-17,-2,-24,15,12,-5,28,30,14,-5,-6,127,39,-19,-12,-31,29,35,61,2,86,5,-35,-9,10,14,-17,-33,23, 
  /* [6][0][][] */ 15,-79,75,5,-33,127,-50,-104,-35,-90,-100,56,4,0,-36,96,16,37,8,-59,-96,-11,-92,-59,-6,-51,-15,81,-125,40,-12,-48,35,74,-25,1,-12,-56,11,-23,-75,33,40,-54,4,60,-109,-24,62,14,-83,-119,84,-9,-42,-33,28,-40,28,-35,-15,-59,47,-6,39,-102,-73,-67,-123,25,-16,-77,-49,-105,14,-115,80,0,-87,40,-47,82,12,-109,60,-63,-12,2,-70,73,-82,85,43,-47,82,-119, 
  /* [7][0][][] */ 0,-7,-59,58,-47,-8,39,-5,-95,13,80,58,1,-50,2,-32,-13,-5,12,18,-63,-34,-35,-41,73,39,-3,73,3,41,18,33,-46,-127,34,120,-1,17,-36,6,2,-7,9,-89,25,64,72,86,-20,41,-47,5,26,-31,49,-53,-19,42,-85,-11,70,20,14,-36,85,-44,121,-16,-56,-36,72,16,-10,-34,-81,-27,42,-26,110,-26,0,-12,-68,-24,56,24,-88,41,-10,29,9,36,70,-9,90,-16, 
  /* [8][0][][] */ -11,-64,12,6,-10,1,19,0,-13,-9,55,40,9,18,-36,-4,76,7,7,0,-9,-79,-41,-22,-21,-28,71,7,-21,45,3,-24,-22,4,0,-6,-47,-15,17,-27,-7,39,25,-33,23,-21,25,-19,36,2,49,3,-5,7,-46,-8,-18,100,-56,-7,-21,-70,-67,-2,-87,-33,-23,14,-15,15,37,-20,-32,-127,44,-101,4,8,-62,13,-31,-18,-5,51,62,-59,-38,53,-40,82,14,-19,-50,1,3,-54, 
  /* [9][0][][] */ -24,-28,-26,18,-2,26,9,43,-45,-4,68,52,-23,54,22,-41,-12,45,-18,-42,-4,31,-1,5,-19,31,6,20,33,5,4,-4,-20,-22,-4,51,-18,-11,27,-4,-19,-27,10,-2,18,39,4,34,-49,8,-18,31,127,22,-12,-8,14,-23,33,15,-42,-4,74,15,7,23,64,0,22,-5,-23,28,6,-126,-37,-124,-34,-10,39,-5,-11,26,-1,-47,47,16,-52,-3,-8,111,43,29,52,37,-6,26, 
  /* [10][0][][] */ 23,48,9,1,-15,15,-43,-25,65,11,-35,23,18,13,-5,-49,-34,-1,24,-3,18,-13,-12,-26,14,-24,-96,41,-21,53,2,6,22,18,-16,8,15,3,6,2,45,-8,50,-42,-36,-2,19,28,18,-1,12,-21,-18,-7,0,36,-7,14,-20,0,-11,-28,-4,11,2,-11,-83,-26,-51,-22,45,-16,-17,34,33,17,52,-11,-87,15,-6,38,6,2,4,12,-66,-127,-22,32,8,20,49,-34,16,30, 
  /* [11][0][][] */ 29,-31,12,-1,-71,21,11,6,82,-15,-25,-43,29,20,12,-7,-37,49,29,-50,8,25,24,-23,42,12,59,-5,27,-53,-31,20,30,110,-99,10,20,-15,65,10,-38,52,-15,13,-44,6,-13,5,46,-21,-29,-16,-24,20,-76,94,-34,12,-2,-24,27,8,-5,-64,7,-30,-127,-78,-2,-37,-88,35,56,15,-11,-1,48,65,-109,-25,-10,3,-6,8,-21,-1,55,72,25,-44,13,11,-34,22,75,31, 
  /* [12][0][][] */ 22,35,-30,-12,10,-35,2,30,59,-34,11,0,0,-11,-6,13,14,-50,-21,23,7,53,0,54,-43,-35,-127,-14,70,-20,34,4,-16,-74,62,-3,38,-7,0,20,2,-48,15,25,35,3,28,-8,-66,-5,-50,94,69,-19,34,-67,9,32,-40,-21,17,54,67,4,-2,-8,33,34,107,20,29,22,5,-16,-14,-4,-29,-40,45,-58,29,-52,37,-27,9,2,0,-106,-7,35,-44,22,16,67,13,35, 
  /* [13][0][][] */ -12,20,-69,30,27,11,-13,6,27,76,-40,43,-50,-22,55,-40,20,42,57,27,-38,-48,-5,14,40,36,-16,17,5,41,47,-15,-12,59,3,47,23,-34,-43,-39,3,-14,13,15,35,56,-21,37,-38,30,7,0,-20,-28,58,34,16,-41,-10,0,32,30,2,-19,17,84,127,45,32,-2,-45,-19,43,48,-78,50,19,-52,126,-32,-3,-36,24,7,27,48,-30,-26,-10,-16,9,44,36,10,57,48, 
  /* [14][0][][] */ 5,63,29,34,-77,-57,19,36,-71,-17,65,10,-78,2,68,-19,-53,29,-53,42,-26,20,-102,16,-51,-4,-64,-123,15,5,33,87,-51,39,20,-18,-17,-73,-2,-36,41,-29,51,-24,-13,56,-79,31,-11,-50,85,29,-21,42,-30,34,-63,43,7,60,51,77,-11,43,28,-40,6,-61,59,58,81,38,-46,32,8,13,44,9,44,30,-60,127,10,-125,91,-6,-7,-1,-105,-15,-23,-1,-27,4,32,31, 
  /* [15][0][][] */ 78,-24,33,28,34,1,-15,-11,25,35,-66,-11,77,77,-9,-17,-14,1,-76,56,1,-30,22,33,61,-34,85,19,45,-26,-35,59,72,52,1,-73,66,72,71,49,96,45,-16,0,-43,-113,38,-25,-32,-19,-22,-7,-5,-57,-30,59,-12,14,-13,19,11,-50,-25,25,45,51,-72,47,-6,-32,-4,-5,0,-127,-43,-107,-12,21,-118,41,82,-28,57,39,-47,-3,-9,-22,38,93,18,-60,-30,-35,29,-41, 
};
const TfArray<16, float> quant15_scale = { 16, { 0.0031849096994847059, 0.0026354354340583086, 0.0026674431283026934, 0.0021875908132642508, 0.003617067588493228, 0.006030927412211895, 0.0020628210622817278, 0.0025358379352837801, 0.0044766939245164394, 0.0038460157811641693, 0.0037751509808003902, 0.0029687511269003153, 0.00394428800791502, 0.0048706051893532276, 0.0036949291825294495, 0.0029571754857897758, } };
const TfLiteAffineQuantization quant15 = { (TfLiteFloatArray*)&quant15_scale, (TfLiteIntArray*)&g0::quant8_zero, 0 };
const MODEL_SECTION(EI_MODEL_SECTION) ALIGN(16) int32_t tensor_data16[96] = { 8649, 62, -5925, 4036, -2533, -356, 239, -1221, 3577, -4185, 784, -3495, 10314, -3091, -1306, -7577, -24, -914, -8775, 235, -1528, 1918, -5918, 236, -8, 6669, -9429, -6301, 1905, -2858, -225, 280, 15242, 776, -2841, 538, 88, 10297, 4068, 8665, -298, 5304, 737, 4594, -1123, -387, 10799, 1311, -5180, -235, -3461, 1559, -1989, -3736, 685, 2040, -76, 2974, 292, 1752, -710, 2101, -436, 6144, 13963, -407, 11833, 13301, -2643, -548, 9714, -1100, -113, 2637, -3939, 77, 19410, 10950, 10303, 13025, 11780, -1614, 8726, 9721, -1073, -2001, 8389, -7380, 7214, -278, -9091, -3461, 555, -320, 19287, -289, };
const TfArray<96, float> quant16_scale = { 96, { 0.000125517399283126, 0.00031281370320357382, 0.00016670906916260719, 0.00021203728101681918, 0.00019022116612177342, 0.00049124401994049549, 0.00010819737508427352, 0.00022994382015895098, 0.00030400138348340988, 0.00025551338330842555, 0.0002844570844899863, 0.00020585487072821707, 0.00010734776151366532, 0.00017439773364458233, 0.00020551255147438496, 0.00015369777975138277, 0.00023469790176022798, 0.00028523599030449986, 0.00013661323464475572, 0.00033909067860804498, 0.00026477832579985261, 0.00023254980624187738, 0.00012402633728925139, 0.00017180363647639751, 0.0023453147150576115, 0.00016572691674809903, 0.00025470307446084917, 0.00014396419283002615, 0.00030506253824569285, 0.0001973501784959808, 0.00017124040459748358, 0.00035378953907638788, 7.9843215644359589e-05, 0.00045058509567752481, 0.000151157466461882, 0.00017712515546008945, 0.00032933030161075294, 0.00011467110016383231, 0.00017416033369954675, 0.00013197652879171073, 0.00050448195543140173, 0.00019130442524328828, 0.0002194555418100208, 0.00017051058239303529, 0.00016463891370221972, 0.00026393771986477077, 0.00011459423694759607, 0.00021243645460344851, 0.00018792891933117062, 0.00042379973456263542, 0.00026643287856131792, 0.00016278120165225118, 0.00012476133997552097, 0.00026904937112703919, 0.00024902683799155056, 0.00029487957363016903, 0.00013479383778758347, 0.00032928198925219476, 0.00035287634818814695, 0.00027979543665423989, 0.00026747907395474613, 0.0002814065373968333, 0.00014776055468246341, 0.0001554847985971719, 0.00018404696311336011, 0.000506692158523947, 0.00013732275692746043, 0.00011404605902498588, 0.00022305008315015584, 0.00029714306583628058, 0.00015103335317689925, 0.00024788075825199485, 0.00048400115338154137, 0.00015286209236364812, 0.00015394190268125385, 0.00021332780306693166, 6.9630063080694526e-05, 0.00012534877168945968, 0.0001401105837430805, 0.00014046582509763539, 0.00010316353291273117, 0.00029105227440595627, 0.00011952437489526346, 0.00022568397980649024, 0.00010231517080683261, 0.00027183906058780849, 0.00015064430772326887, 0.00021849677432328463, 0.00016124655667226762, 0.00022390432422980666, 0.00010122356616193429, 0.00021225422096904367, 0.00029923015972599387, 0.00017960043624043465, 9.0752917458303273e-05, 0.00027733427123166621, } };
const TfLiteAffineQuantization quant16 = { (TfLiteFloatArray*)&quant16_scale, (TfLiteIntArray*)&g0::quant6_zero, 0 };
const MODEL_SECTION(EI_MODEL_SECTION) ALIGN(16) int8_t tensor_data17[1*3*3*96] = { 
  /* [0][0][][] */ -56,-18,16,-32,106,4,25,-5,-10,7,-13,-9,-39,1,-4,-9,-12,15,-17,-20,-12,19,23,38,2,-5,-18,6,13,0,27,-2,-4,-3,4,-25,-3,-74,-46,7,3,3,31,-23,-12,35,-79,-26,-18,12,-3,48,-68,10,29,-24,10,-15,12,-24,-6,-22,-5,-41,-46,-30,-39,-46,-3,39,-16,-9,31,2,2,-7,-35,-3,127,-41,-106,8,-118,-17,-23,-25,24,16,-17,-7,12,-25,-11,32,-44,2, -10,34,67,-48,-40,3,127,-45,-9,-5,-35,17,-56,-1,-101,110,-6,84,64,-35,-9,127,93,127,33,2,52,80,121,38,127,-34,-127,-22,-87,-42,-25,-77,127,-26,-26,-127,-17,-51,57,-33,-43,-14,41,7,29,123,-87,44,-92,-11,-73,-7,-2,23,-12,-127,-127,-55,-76,-6,-5,-97,4,26,-40,119,-127,-21,11,-31,-127,-96,-10,-123,-127,7,14,-64,113,84,-47,37,-127,8,48,-9,2,127,-73,-90, -58,1,1,-15,81,6,50,-24,-29,16,-8,4,-4,0,-7,-22,-6,9,-25,-34,-12,0,17,32,-1,2,4,-15,-3,4,19,3,-7,-4,-4,68,-4,-63,-42,26,-8,-5,11,-12,-5,-20,-47,-42,-14,-1,0,27,14,3,2,-24,78,-23,13,-26,0,-17,-49,-20,-47,-43,127,-46,4,31,-10,0,12,-4,7,14,-23,10,-47,-28,-99,3,-127,-12,5,-36,13,-14,-42,-33,3,50,-4,38,-24,5, 
  /* [0][1][][] */ -78,-8,44,-34,60,97,-46,-11,-9,-4,-28,-9,-127,21,22,100,-11,50,87,19,18,-22,116,-31,42,27,66,23,-14,-5,-9,-26,-105,-19,71,-24,-8,-127,-69,-127,-24,-1,90,-19,-62,127,-122,-79,56,69,7,-53,-113,79,67,-34,26,-34,38,-16,13,-16,81,-80,-64,15,-21,-86,-4,-1,-127,17,96,127,11,-69,-118,-73,-69,-58,-57,-5,-46,-68,42,28,-112,61,-53,127,101,-69,127,12,-70,-11, 88,127,127,127,-127,-127,120,-50,127,127,-73,-47,-85,127,-29,127,127,-127,127,127,127,-95,92,-127,-127,-127,127,127,-127,127,-24,127,-59,127,127,-122,127,78,-4,-19,127,-10,-127,-97,127,-21,127,127,127,-127,127,-127,118,127,-127,127,-127,127,-127,127,-88,96,90,-127,127,127,-18,127,-87,-127,-8,-127,30,119,127,74,-2,-127,87,-127,49,127,93,127,127,77,-127,127,-64,44,-1,-12,-92,-17,-127,-30, -127,-33,38,-50,28,60,-51,5,-45,-7,-3,127,-113,22,26,64,-24,59,58,-2,6,-32,73,-25,41,13,40,12,-16,-12,19,-20,-75,-34,90,127,-5,-88,-92,-80,-38,-26,18,-34,-55,-62,-112,-113,37,71,-8,-38,127,15,94,-45,103,-28,55,-44,-2,-39,-115,-36,-91,-9,-47,-86,-10,11,-105,-8,42,-112,9,127,-92,-49,-64,5,-86,-10,-70,-93,1,29,-93,40,-17,-82,127,127,-42,-9,-69,-12, 
  /* [0][2][][] */ -42,-46,-12,-21,52,2,-11,22,-16,8,29,-16,28,0,-11,-52,0,1,-35,-22,-15,-18,13,-27,13,-4,-20,17,-4,-13,-29,-2,-7,-6,0,-21,-4,-49,-25,-16,-24,-6,25,21,30,15,-84,-2,-28,18,-22,-27,9,-40,30,-23,21,-28,10,-21,4,10,9,-2,-48,-22,114,-2,32,30,-23,1,-13,-22,-4,-25,-18,18,-38,-26,-19,6,-85,-25,-5,1,49,-2,0,1,7,-7,-15,-2,-27,-9, -39,-64,35,-75,-26,4,50,127,-64,59,127,-22,-87,20,127,84,-9,-29,78,-49,-24,-42,127,4,23,-11,33,27,-10,10,-97,-51,-61,-35,-98,-6,-85,-85,42,-53,-12,-105,-41,127,28,-18,-67,8,27,7,-10,-16,75,30,-50,-30,-53,-57,42,-51,127,20,106,21,-96,-45,-26,-65,127,27,-43,17,14,-34,18,-23,-34,-52,-3,64,-82,-19,-76,-90,47,-127,11,13,-12,5,62,7,9,-101,-81,127, -41,-4,-14,10,56,-1,-6,20,-29,1,13,43,21,3,-14,-55,-5,18,-17,-34,-19,-13,-9,-11,5,-9,-11,5,-14,-9,-32,-4,19,-2,2,-3,-12,-45,-36,-17,-39,-3,-8,8,24,-2,-89,11,-31,3,-13,-24,11,-47,27,-12,67,-18,16,-21,10,11,-2,24,-34,-20,-24,9,35,16,-28,-6,-55,-48,-4,-13,-40,-7,92,-5,2,2,-54,-17,-13,5,53,4,7,5,3,19,-3,-7,-9,-12, 
};
const TfArray<96, float> quant17_scale = { 96, { 0.005518411286175251, 0.01375295128673315, 0.0073294159956276417, 0.0093222847208380699, 0.0083631323650479317, 0.021597694605588913, 0.0047569312155246735, 0.010109551250934601, 0.013365514576435089, 0.011233724653720856, 0.012506243772804737, 0.0090504735708236694, 0.0047195777297019958, 0.007667450699955225, 0.0090354233980178833, 0.0067573706619441509, 0.010318566113710403, 0.012540488503873348, 0.006006243173032999, 0.014908227138221264, 0.011641061864793301, 0.010224124416708946, 0.0054528564214706421, 0.0075534000061452389, 0.10311248898506165, 0.007286235224455595, 0.011198099702596664, 0.0063294302672147751, 0.013412169180810452, 0.008676561526954174, 0.0075286375358700752, 0.015554466284811497, 0.0035103317350149155, 0.019810114055871964, 0.0066456850618124008, 0.0077873622067272663, 0.014479109086096287, 0.0050415503792464733, 0.007657012902200222, 0.0058023892343044281, 0.022179706022143364, 0.008410758338868618, 0.0096484310925006866, 0.0074965506792068481, 0.0072384011000394821, 0.011604104191064835, 0.005038171075284481, 0.009339834563434124, 0.0082623530179262161, 0.018632486462593079, 0.011713803745806217, 0.0071567259728908539, 0.0054851709865033627, 0.011828838847577572, 0.010948541574180126, 0.01296447217464447, 0.0059262528084218502, 0.014476984739303589, 0.015514317899942398, 0.012301293201744556, 0.011759800836443901, 0.012372125871479511, 0.00649633863940835, 0.0068359375, 0.0080916816368699074, 0.022276878356933594, 0.0060374378226697445, 0.0050140703096985817, 0.0098064662888646126, 0.013063987717032433, 0.0066402279771864414, 0.010898154228925705, 0.021279260516166687, 0.0067206290550529957, 0.0067681032232940197, 0.0093790227547287941, 0.0030613073613494635, 0.0055109979584813118, 0.0061600054614245892, 0.0061756237410008907, 0.0045356168411672115, 0.012796203605830669, 0.0052549261599779129, 0.0099222660064697266, 0.0044983183033764362, 0.011951488442718983, 0.0066231237724423409, 0.0096062785014510155, 0.0070892549119889736, 0.0098440228030085564, 0.0044503253884613514, 0.009331822395324707, 0.013155747205018997, 0.0078961886465549469, 0.0039899800904095173, 0.012193087488412857, } };
const TfLiteAffineQuantization quant17 = { (TfLiteFloatArray*)&quant17_scale, (TfLiteIntArray*)&g0::quant6_zero, 3 };
const MODEL_SECTION(EI_MODEL_SECTION) ALIGN(16) int32_t tensor_data18[96] = { 1314, 6743, 306, 1404, 4683, 15237, 85, 2122, 12818, -1093, 13765, 4946, 1642, 570, 4266, 440, 1972, 3327, -421, 10243, 942, 9061, -1679, 2118, -9592, 1269, 2717, 1315, 5817, 1203, 3515, 4191, 1637, 8561, 3662, 3645, 3172, 1728, 5165, 2293, 23538, 1282, 2731, 1095, 2540, 9061, 7095, 7096, 1134, -1179, 1729, 6717, 2375, -3341, 8924, 336, 2205, 17980, 1181, 1474, 2495, 11772, 3621, -411, 13166, 12201, 1831, 3935, 4880, 4448, 1758, 1586, -3540, 4010, 1398, 2756, 394, 7158, 3458, 6479, 3077, 894, 5192, 9547, -184, 8751, 4367, 1738, -521, 2333, 1067, 8654, 3633, 2716, 4862, 5377, };
const TfArray<96, float> quant18_scale = { 96, { 0.0002732591237872839, 0.00011714403808582574, 0.00034011460957117379, 0.0002878326631616801, 0.00014960017870180309, 6.3650470110587776e-05, 0.00026044578407891095, 0.00014532226487062871, 7.2711147367954254e-05, 0.00018364377319812775, 6.058780854800716e-05, 9.7899064712692052e-05, 0.0001811739057302475, 0.00034095189766958356, 0.00014189101057127118, 0.00017209863290190697, 0.00027533248066902161, 0.00018708810966927558, 0.00014336250023916364, 8.4054976468905807e-05, 0.00026103697018697858, 8.3932434790767729e-05, 0.00015903462190181017, 0.00014846214617136866, 8.1315760326106101e-05, 0.00016324975877068937, 0.00018939010624308139, 0.00025629301671870053, 0.00015176326269283891, 0.00020234497787896544, 0.00017546287563163787, 0.00013326334010343999, 0.00024502104497514665, 0.0001029045888572, 0.00015726429410278797, 0.00017573054356034845, 0.0001885544479591772, 0.00024325287085957825, 0.00010013759310822934, 0.00018750866001937538, 4.1608294850448146e-05, 0.0001983113179448992, 0.00014321519120130688, 0.00013433455023914576, 0.00014498911332339048, 9.2649897851515561e-05, 0.00010274342639604583, 0.0001074117753887549, 0.00027347166906110942, 0.00020866445265710354, 0.00024183095956686884, 0.00011210743105039001, 0.00018542743055149913, 0.00011845803237520158, 8.7055079347919673e-05, 0.00034686626167967916, 0.000137946946779266, 5.2880437579005957e-05, 0.00014222855679690838, 0.0001824218052206561, 0.00017625151667743921, 7.7048513048794121e-05, 0.00017266211216337979, 0.00023689404770266265, 7.506498513976112e-05, 7.5728807132691145e-05, 0.00022734311642125249, 0.00014731929695699364, 0.00014978476974647492, 0.00011395978799555451, 0.00029882253147661686, 0.00011577615077840164, 0.00017336317978333682, 0.00015516496205236763, 0.0002556488907430321, 0.00022229243768379092, 0.00017448791186325252, 0.00010823622869793326, 0.00016777966811787337, 0.00013542291708290577, 0.0001471146970288828, 0.00018293876200914383, 0.00010137687786482275, 9.6721974841784686e-05, 0.00013969041174277663, 7.9678458860144019e-05, 0.00015574292046949267, 0.00024053666857071221, 0.00026169858756475151, 0.00024132360704243183, 0.00017922549159266055, 9.5034622063394636e-05, 0.00014537753304466605, 0.00014777871547266841, 0.00011512017226777971, 0.00012752741167787462, } };
const TfLiteAffineQuantization quant18 = { (TfLiteFloatArray*)&quant18_scale, (TfLiteIntArray*)&g0::quant6_zero, 0 };
const MODEL_SECTION(EI_MODEL_SECTION) ALIGN(16) int8_t tensor_data19[96*1*1*16] = { 
  /* [0][0][][] */ 58,4,11,64,-127,-34,98,55,73,104,-25,50,14,2,29,77, 
  /* [1][0][][] */ -18,19,-69,-15,127,88,-2,-11,-22,27,-70,27,-40,88,-54,-39, 
  /* [2][0][][] */ -34,69,86,-14,67,78,11,37,38,0,33,-13,56,-127,4,13, 
  /* [3][0][][] */ 127,-23,14,-5,34,28,-4,10,27,35,-56,-24,-34,37,-24,58, 
  /* [4][0][][] */ -69,-9,11,23,-103,-5,-77,-24,-28,40,1,-43,-23,26,-28,127, 
  /* [5][0][][] */ -88,-1,30,10,127,36,10,8,-50,31,-29,8,-54,38,-100,-25, 
  /* [6][0][][] */ -127,15,-36,29,-15,-64,69,16,3,-37,-43,35,14,0,-40,17, 
  /* [7][0][][] */ -10,99,45,-84,61,59,127,14,35,-17,6,39,103,26,-52,11, 
  /* [8][0][][] */ -46,-24,-61,56,-51,85,-51,-66,23,-32,86,44,127,58,-113,13, 
  /* [9][0][][] */ -6,-127,-10,78,-36,-74,-4,53,49,51,0,66,-76,16,-3,-43, 
  /* [10][0][][] */ -31,-59,-91,50,-127,112,64,-82,14,-87,50,-39,45,95,-83,68, 
  /* [11][0][][] */ -47,-116,-43,35,-10,119,33,-4,26,18,43,-109,12,124,-121,127, 
  /* [12][0][][] */ -30,-99,-73,111,-106,-127,14,71,86,66,-30,107,-10,-63,-26,-17, 
  /* [13][0][][] */ -63,-20,-33,-4,-15,0,34,18,-15,127,-8,-22,44,36,17,-7, 
  /* [14][0][][] */ -122,-32,-44,-58,-6,81,-38,-106,127,-53,68,8,102,-60,-84,-102, 
  /* [15][0][][] */ 6,-127,88,-58,-67,-39,4,60,19,-63,-89,-47,89,-54,-30,-48, 
  /* [16][0][][] */ -15,-29,18,-25,18,14,-15,-26,53,-127,29,-27,-7,0,-57,-79, 
  /* [17][0][][] */ -15,0,43,-63,35,-1,-35,9,95,-47,16,69,111,-76,-27,-127, 
  /* [18][0][][] */ 81,-3,-31,-110,12,-30,111,-46,29,72,-5,79,-12,82,-4,-127, 
  /* [19][0][][] */ -31,-37,-24,-82,-122,48,4,-9,27,-49,10,-127,4,-11,-25,4, 
  /* [20][0][][] */ 17,78,81,-100,70,-4,-51,100,-114,-124,41,-82,-30,127,-10,-9, 
  /* [21][0][][] */ 4,-101,-127,-17,100,47,107,100,-90,-93,-23,28,101,-102,-44,35, 
  /* [22][0][][] */ 55,-14,75,-9,2,13,76,30,19,120,35,35,5,18,127,3, 
  /* [23][0][][] */ -114,-60,-31,66,65,32,22,-2,-12,7,-1,-99,-7,52,53,127, 
  /* [24][0][][] */ 16,-11,31,31,15,-89,8,-58,24,127,-105,79,-19,-61,76,-65, 
  /* [25][0][][] */ 127,-49,104,121,29,4,-9,31,-104,62,57,-61,-4,18,77,-14, 
  /* [26][0][][] */ -25,26,12,38,-58,119,-14,43,-64,-40,-84,32,6,22,50,-127, 
  /* [27][0][][] */ 41,-4,-12,-42,-57,-2,-89,1,-110,-30,-71,-52,-84,44,-20,127, 
  /* [28][0][][] */ -65,29,16,-4,18,-17,-127,-5,-12,-33,-2,-4,3,-46,-65,-32, 
  /* [29][0][][] */ -26,-127,-21,107,-28,10,116,0,81,57,-110,61,24,-30,-57,69, 
  /* [30][0][][] */ 37,-37,-74,6,-127,22,51,-33,7,2,8,-21,-25,66,-6,91, 
  /* [31][0][][] */ -127,-13,6,85,-40,15,-35,-8,-32,-49,5,-38,-27,-52,-34,82, 
  /* [32][0][][] */ -121,-81,-92,10,-107,-56,-9,-17,127,50,-43,-68,35,44,24,-28, 
  /* [33][0][][] */ -1,16,-82,32,-127,-96,56,-2,-109,19,-58,-51,-11,92,70,63, 
  /* [34][0][][] */ 31,58,3,37,-75,-42,37,14,18,-127,-18,33,-33,1,39,90, 
  /* [35][0][][] */ 39,1,-59,-18,-127,8,106,-35,33,57,-22,-8,27,84,34,70, 
  /* [36][0][][] */ 6,-1,-43,55,127,-21,49,65,-78,27,-87,-74,32,-13,8,14, 
  /* [37][0][][] */ -118,55,1,-74,53,-96,-47,-33,-10,-19,-25,57,66,-87,20,-127, 
  /* [38][0][][] */ 43,115,19,-79,-104,-55,-127,-56,-44,-72,53,69,-86,-107,74,-4, 
  /* [39][0][][] */ 5,-55,8,77,17,66,75,-45,-33,50,12,-28,-12,127,47,117, 
  /* [40][0][][] */ 125,38,119,127,-54,-59,0,40,-74,82,-22,-20,-48,-35,118,-21, 
  /* [41][0][][] */ -16,-16,16,57,-84,101,-4,48,-50,33,-106,12,13,34,47,-127, 
  /* [42][0][][] */ -3,-102,19,-15,127,35,69,13,-39,-112,-101,-32,-16,-7,-7,33, 
  /* [43][0][][] */ -51,-84,-34,-15,112,22,1,82,-79,-60,-127,-68,112,3,-64,59, 
  /* [44][0][][] */ -33,-68,-76,-71,13,73,55,2,-30,-127,-56,45,-38,32,20,86, 
  /* [45][0][][] */ -3,-49,-79,-2,-127,67,-32,-56,72,-44,31,-50,-13,14,-38,40, 
  /* [46][0][][] */ 36,-73,-11,2,88,-85,-13,92,5,-24,31,66,-49,-59,66,-127, 
  /* [47][0][][] */ -79,-54,-10,102,0,10,28,40,6,127,87,79,-40,80,-15,102, 
  /* [48][0][][] */ 48,-14,-79,-94,38,-72,14,59,45,-81,-6,26,-54,13,-42,-127, 
  /* [49][0][][] */ 63,46,10,31,-17,-31,53,46,-28,127,-42,37,-47,-29,82,90, 
  /* [50][0][][] */ 1,-4,10,10,-127,-14,-9,-37,51,13,24,48,-22,-62,11,-2, 
  /* [51][0][][] */ 13,-6,-3,-127,-11,101,38,-59,13,14,35,-53,68,79,-28,20, 
  /* [52][0][][] */ 16,-29,-12,-89,82,-101,-4,-38,34,-12,127,-69,44,6,-45,103, 
  /* [53][0][][] */ -40,-63,49,-32,-55,-127,26,-112,-4,91,-103,89,-22,-35,44,-93, 
  /* [54][0][][] */ 60,81,32,-15,-127,-41,-85,-96,-8,8,49,70,-76,-56,56,10, 
  /* [55][0][][] */ 20,6,-22,58,-24,21,37,-16,3,127,8,60,2,3,-4,31, 
  /* [56][0][][] */ 29,-111,-92,74,-65,50,-19,81,112,36,78,73,-31,-17,65,127, 
  /* [57][0][][] */ 41,33,89,-105,87,1,-5,3,81,-36,15,127,57,-43,112,-45, 
  /* [58][0][][] */ 82,-66,24,-66,44,18,-12,127,50,94,-16,50,59,18,76,5, 
  /* [59][0][][] */ -40,44,43,-54,-4,-98,9,10,-8,26,-127,-97,-119,-46,85,-11, 
  /* [60][0][][] */ 37,-33,19,25,25,-6,0,-34,39,127,-5,76,-1,-26,-25,-39, 
  /* [61][0][][] */ 81,46,25,-15,-86,-127,-24,-60,-57,-10,-27,18,-60,-53,86,59, 
  /* [62][0][][] */ -25,91,-46,35,-60,127,-40,18,-63,2,-43,22,-32,35,64,-79, 
  /* [63][0][][] */ 28,-15,-69,-127,-23,-51,92,-10,-8,-105,-31,30,-37,80,31,-40, 
  /* [64][0][][] */ -38,27,1,-22,54,-63,34,77,-127,-16,-65,-40,-26,79,49,63, 
  /* [65][0][][] */ -64,-22,-33,-15,36,42,-28,-68,-127,-62,-4,-42,-90,95,-55,41, 
  /* [66][0][][] */ -12,63,-8,36,-44,127,-21,24,-65,25,-35,50,-31,52,56,-92, 
  /* [67][0][][] */ 17,-37,-29,-37,28,-86,69,-91,3,44,-11,119,-59,-26,-30,-127, 
  /* [68][0][][] */ 16,-127,-17,65,-7,3,27,87,43,32,46,17,-56,23,-7,-15, 
  /* [69][0][][] */ 20,94,97,-102,44,-5,-56,98,30,113,64,67,95,-101,16,-127, 
  /* [70][0][][] */ 42,30,39,-41,91,12,-80,-61,-127,-89,-12,35,-27,54,-104,-3, 
  /* [71][0][][] */ -30,-85,30,-57,105,-8,35,57,-98,114,-127,-34,11,110,-18,57, 
  /* [72][0][][] */ 25,8,64,22,-52,-14,-119,-73,11,73,-27,65,18,103,-127,-24, 
  /* [73][0][][] */ -2,-31,-14,-49,46,-121,35,-57,74,99,99,-14,21,-16,-71,127, 
  /* [74][0][][] */ 4,13,-31,76,-90,-11,96,32,75,56,29,113,127,30,-52,20, 
  /* [75][0][][] */ -33,40,-25,36,-54,127,-20,26,-37,32,-41,50,-20,58,32,-71, 
  /* [76][0][][] */ -63,79,-51,51,-115,-8,-7,18,54,36,-46,-50,55,-52,-127,36, 
  /* [77][0][][] */ 85,93,-119,127,57,73,51,45,42,-1,106,-41,57,26,40,10, 
  /* [78][0][][] */ 21,-50,2,-57,71,-127,32,-59,45,45,118,-28,6,-22,-45,116, 
  /* [79][0][][] */ -45,49,-2,21,8,-43,-41,-2,-127,0,54,8,99,45,-90,-50, 
  /* [80][0][][] */ -69,24,81,3,74,42,-8,-127,-83,71,-67,-44,-9,-94,21,50, 
  /* [81][0][][] */ 97,69,-9,-7,32,-38,84,109,-109,127,-78,-46,-37,12,121,109, 
  /* [82][0][][] */ 69,127,-34,-57,-4,-54,99,-110,59,30,-65,65,125,-27,63,-61, 
  /* [83][0][][] */ 9,-34,29,20,10,18,-39,-100,70,-19,84,26,31,-53,-45,-127, 
  /* [84][0][][] */ -127,-94,-35,-13,-14,95,86,1,82,55,95,86,60,75,-79,13, 
  /* [85][0][][] */ 101,-2,102,-86,80,-2,-13,80,17,127,-73,-4,-35,89,103,15, 
  /* [86][0][][] */ -75,63,-24,8,32,81,13,15,93,45,127,-17,-28,63,-16,-32, 
  /* [87][0][][] */ 9,-56,23,-45,42,-127,25,-28,43,-12,66,-36,33,-42,-39,74, 
  /* [88][0][][] */ -95,46,44,-9,110,-28,36,21,-61,-70,91,-74,65,119,85,-127, 
  /* [89][0][][] */ -22,31,-15,24,-27,127,-11,34,-49,10,-43,20,2,56,23,-84, 
  /* [90][0][][] */ 59,-88,23,28,127,1,52,35,-5,-91,-109,-15,-4,4,-56,29, 
  /* [91][0][][] */ -15,70,-33,-35,11,-82,-112,54,-73,26,-104,-123,-127,-91,-2,27, 
  /* [92][0][][] */ 65,53,57,33,-127,-84,17,3,-25,34,-26,-38,-29,-77,26,-4, 
  /* [93][0][][] */ -6,-127,-119,58,-22,-57,-9,113,102,90,3,77,-58,74,-33,-32, 
  /* [94][0][][] */ 105,30,110,-20,8,-40,18,31,20,66,8,47,15,3,127,5, 
  /* [95][0][][] */ -43,-50,-22,-14,127,-9,41,68,-31,-6,-94,-57,22,5,-66,14, 
};
const TfArray<96, float> quant19_scale = { 96, { 0.0046168235130608082, 0.0019791959784924984, 0.0057463739067316055, 0.0048630493693053722, 0.002527555450797081, 0.0010754005052149296, 0.0044003371149301529, 0.0024552785325795412, 0.0012284842086955905, 0.0031027358490973711, 0.0010236555244773626, 0.001654044259339571, 0.0030610065441578627, 0.0057605202309787273, 0.0023973060306161642, 0.0029076761566102505, 0.0046518538147211075, 0.0031609293073415756, 0.0024221674539148808, 0.0014201428275555372, 0.0044103250838816166, 0.001418072497472167, 0.0026869543362408876, 0.0025083280634135008, 0.0013738626148551702, 0.0027581707108765841, 0.0031998225022107363, 0.0043301740661263466, 0.0025641017127782106, 0.0034187003038823605, 0.0029645161703228951, 0.0022515379823744297, 0.0041397297754883766, 0.0017386146355420351, 0.0026570439804345369, 0.0029690386727452278, 0.0031857036519795656, 0.0041098557412624359, 0.0016918651526793838, 0.0031680346000939608, 0.00070298899663612247, 0.0033505498431622982, 0.0024196784943342209, 0.002269636606797576, 0.0024496498517692089, 0.0015653575537726283, 0.0017358917975798249, 0.001814765390008688, 0.0046204146929085255, 0.0035254703834652901, 0.0040858318097889423, 0.001894100452773273, 0.0031328713521361351, 0.0020013963803648949, 0.0014708307571709156, 0.0058604460209608078, 0.0023306694347411394, 0.00089343637228012085, 0.0024030089844018221, 0.0030820902902632952, 0.0029778406023979187, 0.0013017657911404967, 0.0029171963687986135, 0.0040024206973612309, 0.001268253312446177, 0.0012794688809663057, 0.0038410539273172617, 0.0024890191853046417, 0.0025306742172688246, 0.0019253967329859734, 0.0050487276166677475, 0.0019560849759727716, 0.0029290411621332169, 0.0026215747930109501, 0.0043192915618419647, 0.0037557205650955439, 0.0029480438679456711, 0.0018286948325112462, 0.0028347054030746222, 0.0022880248725414276, 0.0024855623487383127, 0.0030908244661986828, 0.0017128033796325326, 0.0016341569134965539, 0.0023601260036230087, 0.0013461997732520103, 0.0026313397102057934, 0.0040639643557369709, 0.0044215037487447262, 0.0040772599168121815, 0.0030280870851129293, 0.0016056484309956431, 0.0024562121834605932, 0.0024967812933027744, 0.001945001888088882, 0.0021546271163970232, } };
const TfLiteAffineQuantization quant19 = { (TfLiteFloatArray*)&quant19_scale, (TfLiteIntArray*)&g0::quant6_zero, 0 };
const MODEL_SECTION(EI_MODEL_SECTION) ALIGN(16) int32_t tensor_data20[16] = { -4778, 8769, -16360, 3159, 13668, -14934, -37233, -11236, -4099, 5430, -16476, -13063, 6271, -10790, -5248, -3826, };
const TfArray<16, float> quant20_scale = { 16, { 0.00013307658082339913, 0.00014031687169335783, 0.00013383393525145948, 0.00013766635674983263, 9.7789023129735142e-05, 0.00013750196376349777, 0.00011173643724760041, 0.00011920129327336326, 0.00012410878844093531, 0.00010899196786340326, 0.00017016565834637731, 0.00014798690972384065, 0.00010762150486698374, 9.6183866844512522e-05, 0.00012916236300952733, 0.00013230367039795965, } };
const TfLiteAffineQuantization quant20 = { (TfLiteFloatArray*)&quant20_scale, (TfLiteIntArray*)&g0::quant8_zero, 0 };
const MODEL_SECTION(EI_MODEL_SECTION) ALIGN(16) int8_t tensor_data21[16*1*1*48] = { 
  /* [0][0][][] */ 23,34,20,-33,66,67,-38,57,-13,114,0,47,-37,33,-18,45,31,80,46,-58,-75,81,-5,53,59,46,38,49,-51,-48,-7,84,-25,8,-69,53,55,-127,-36,18,16,-29,61,-8,-12,-56,-62,-16, 
  /* [1][0][][] */ -48,9,-78,-49,9,93,-63,22,-7,-38,-44,31,66,-18,-26,-30,-29,-31,-6,20,-63,52,-102,-39,-51,-42,52,65,-20,-30,46,-40,14,-62,-28,60,19,-54,127,-32,-18,37,-46,-11,41,52,39,29, 
  /* [2][0][][] */ 1,-1,57,-29,-22,-87,20,20,98,79,-67,12,106,-51,127,93,-76,-30,-36,35,85,-90,-44,-109,13,-39,40,-77,36,42,-45,5,37,-28,55,33,-78,0,-4,-38,31,24,64,-24,12,-98,91,-64, 
  /* [3][0][][] */ 43,1,-26,-23,25,105,18,-20,45,-53,24,-28,-58,12,10,46,-49,-66,35,-120,-11,-5,-29,-18,-36,86,127,57,-9,-49,30,32,59,-32,86,29,-47,-58,-5,36,29,12,-24,-2,20,12,-8,-23, 
  /* [4][0][][] */ 113,-8,12,-55,92,85,47,14,79,-24,-107,25,51,-20,19,-15,-101,-127,-29,-103,-20,22,-37,-26,-89,122,-102,123,-61,-61,31,87,40,-52,23,-33,-6,14,-35,29,-53,-13,-3,57,-49,104,-28,-55, 
  /* [5][0][][] */ 2,-6,-59,4,-17,53,20,-24,66,53,38,87,54,-20,36,-3,-41,127,-19,34,14,-1,-67,-14,34,0,-67,-38,-11,26,16,-16,-40,2,43,13,-46,7,-88,2,90,-19,28,50,-16,8,-41,31, 
  /* [6][0][][] */ 59,5,22,72,0,-40,111,-62,1,60,119,100,35,43,-49,67,38,-44,-78,87,41,-61,-51,52,-83,91,89,-15,105,47,-32,-3,100,-69,-127,-15,97,28,-6,-8,10,50,53,-32,59,118,25,-12, 
  /* [7][0][][] */ -95,-3,-18,22,-61,-56,26,51,86,117,-57,-75,-100,8,-11,-18,-81,105,0,124,-54,50,29,42,-19,-96,-34,-81,34,45,-7,14,-15,17,14,-11,10,-56,127,15,7,44,30,-9,58,77,-29,2, 
  /* [8][0][][] */ -9,-88,47,-58,60,-59,67,-38,-26,-113,33,5,-37,9,24,26,-6,11,-38,95,10,27,-20,32,65,-11,-58,-31,-127,-28,-51,-113,4,-63,9,76,-12,31,112,19,13,-3,62,107,-11,-68,-39,77, 
  /* [9][0][][] */ 21,-39,30,-62,38,72,-31,46,23,-36,-35,-17,23,-46,116,-12,2,-103,33,33,-63,45,52,-30,-21,-74,-23,69,55,72,-35,-16,-50,27,-4,127,-16,-41,-55,-23,-27,2,37,106,56,84,-68,12, 
  /* [10][0][][] */ -7,19,-22,-10,25,28,-67,-42,56,39,60,-12,-34,-6,54,-50,-65,127,-1,49,1,-11,25,32,-46,41,3,95,35,2,-36,-9,70,5,-6,30,-11,-47,-40,25,-82,-2,27,-14,19,45,34,32, 
  /* [11][0][][] */ -26,37,-14,30,28,51,5,5,20,23,-127,-65,70,19,0,-41,-6,20,-40,-44,-6,-3,94,6,41,14,-22,27,-4,32,-10,52,23,-6,-47,0,44,79,95,24,33,-22,61,4,-50,-14,78,1, 
  /* [12][0][][] */ -67,-8,36,17,-64,-63,7,-2,-37,-37,-127,10,71,-94,26,32,43,109,86,-123,-30,41,-43,-77,-5,-18,31,-33,7,16,-16,74,63,74,44,-36,-57,-22,29,-2,-34,15,55,2,39,-12,-37,-37, 
  /* [13][0][][] */ -42,-111,-37,-100,5,15,59,14,-108,17,114,-65,52,45,127,14,109,24,-13,-100,74,-74,120,3,-70,0,-21,5,-35,-104,-106,23,47,-33,-70,64,36,-56,67,-75,-5,56,69,49,57,-25,100,-63, 
  /* [14][0][][] */ 65,18,-49,0,-43,16,-84,-24,-27,67,44,49,-7,-63,21,-47,49,-119,22,15,86,-49,27,-4,-9,127,-89,-1,-55,-20,-97,7,123,43,83,-10,-70,16,-22,64,-12,-38,107,-19,-52,-41,-51,58, 
  /* [15][0][][] */ -62,18,46,20,98,6,1,36,20,81,-18,61,60,-20,-34,-21,15,38,-1,-37,26,-32,-49,-57,50,-69,-41,65,-33,14,17,11,-61,-1,127,2,-82,21,58,-17,-47,-20,21,0,-31,-28,-11,11, 
};
const TfArray<4, int> tensor_dimension21 = { 4, { 16,1,1,48 } };
const TfArray<16, float> quant21_scale = { 16, { 0.0056557543575763702, 0.0059634670615196228, 0.0056879422627389431, 0.0058508198708295822, 0.0041560335084795952, 0.0058438335545361042, 0.0047487984411418438, 0.0050660548731684685, 0.005274623166769743, 0.0046321586705744267, 0.0072320406325161457, 0.0062894434668123722, 0.0045739137567579746, 0.0040878141298890114, 0.0054894001223146915, 0.0056229056790471077, } };
const TfLiteAffineQuantization quant21 = { (TfLiteFloatArray*)&quant21_scale, (TfLiteIntArray*)&g0::quant8_zero, 0 };
const MODEL_SECTION(EI_MODEL_SECTION) ALIGN(16) int32_t tensor_data22[48] = { 12647, 33, 16318, -554, 14578, -2559, 28672, 90, 10084, 37809, 813, 23371, -286, 10768, 33678, 19619, -599, -1875, 1103, 46776, -166, 20459, 409, 16937, 18364, 32665, 47, -2141, -3667, 16501, 23351, -463, 860, -277, -284, 18111, 10173, 29188, 928, 18788, 25433, 529, 641, 16244, -1276, 513, 41304, 23905, };
const TfArray<1, int> tensor_dimension22 = { 1, { 48 } };
const TfArray<48, float> quant22_scale = { 48, { 0.000113947011413984, 0.00010301978181814775, 8.0527643149252981e-05, 0.00014351980644278228, 0.0001045963799697347, 9.3632639618590474e-05, 6.7978558945469558e-05, 0.00026862238883040845, 0.00013424022472463548, 5.7091980124823749e-05, 6.8871828261762857e-05, 9.6294024842791259e-05, 7.9050965723581612e-05, 0.00011707895464496687, 5.451529796118848e-05, 0.00011411207378841937, 0.00010777886200230569, 8.58225830597803e-05, 0.00017484920681454241, 4.688641638495028e-05, 7.7433986007235944e-05, 7.1977439802139997e-05, 9.3850394478067756e-05, 0.00010956695768982172, 6.8004068452864885e-05, 7.2238151915371418e-05, 6.5221269323956221e-05, 4.8968751798383892e-05, 0.00020324776414781809, 8.5734202002640814e-05, 6.6284825152251869e-05, 0.00030503535526804626, 0.00011345061648171395, 0.00017631730588618666, 0.0001042958174366504, 6.5726570028346032e-05, 0.00010780728189274669, 6.2064696976449341e-05, 0.00010573359031695873, 0.0001121999739552848, 5.853640686837025e-05, 0.00013132345338817686, 0.00019793769752141088, 6.8912122515030205e-05, 0.00015251076547428966, 6.4466184994671494e-05, 4.5121760194888338e-05, 6.6378001065459102e-05, } };
const TfArray<48, int> quant22_zero = { 48, { 0,0,0,0,0,0,0,0,0,0,0,0,0,0,0,0,0,0,0,0,0,0,0,0,0,0,0,0,0,0,0,0,0,0,0,0,0,0,0,0,0,0,0,0,0,0,0,0 } };
const TfLiteAffineQuantization quant22 = { (TfLiteFloatArray*)&quant22_scale, (TfLiteIntArray*)&quant22_zero, 0 };
const MODEL_SECTION(EI_MODEL_SECTION) ALIGN(16) int8_t tensor_data23[1*3*3*48] = { 
  /* [0][0][][] */ -93,57,-127,87,-110,67,-40,81,-73,-85,71,-61,66,-82,-68,-50,80,69,84,-110,78,-110,86,-96,-99,-52,69,127,-96,-59,-92,54,72,-93,60,-120,-78,-113,91,-38,-22,-109,101,-117,94,64,-75,-45, -108,89,-75,97,-89,127,-42,127,-103,-102,103,-86,93,-93,-79,-70,116,104,127,-127,99,-118,111,-127,-108,-92,88,112,33,-104,-120,79,92,-127,99,-126,-100,-127,110,-70,-103,99,127,-127,-34,105,-89,-77, -56,45,-9,26,-15,66,-13,9,-40,-61,48,-39,42,-38,-39,-12,38,44,64,-33,32,-40,45,-50,-94,-29,31,28,108,-50,-61,5,24,-77,34,-30,-27,-17,41,-44,-105,-27,34,-49,-55,65,-15,-62, 
